W1
  -0.0362667     0.284786     0.485353    -0.117905     0.316984     0.269666     0.494952    -0.147956     0.186442    0.0091026     0.288239   -0.0505831     0.409671     0.444312    -0.451825     0.244285     -0.16363    -0.168942    -0.234174   -0.0425599    -0.382348   -0.0520651     0.477696     0.161126    -0.424535     0.144388    -0.141866     0.465553     -0.20458     0.200361     0.491674    -0.444362    -0.174859     0.109254     0.102141    -0.257725    -0.370304    -0.382209    -0.310298    -0.411325     0.119112     0.155779    -0.294512   -0.0450519     0.107956     0.451412    -0.317433    -0.111368    -0.434078    -0.375183    -0.235942    0.0675677    -0.169387    -0.395555    -0.466486     -0.37368     0.305985    0.0787369     0.146425     0.288875     0.433124    -0.407003    -0.114169    -0.420487    -0.430538    -0.366766    0.0895587     0.360041   -0.0511794    -0.203781     -0.37544     0.430318     0.323241    -0.483952    -0.217826     0.328183    0.0959127    -0.284056      0.32232    0.0664146       0.1033    -0.214575     0.123171     0.443596     0.310043     0.288425    -0.352581    -0.029672   -0.0203522    -0.129471     0.182527    -0.441685    -0.258525     -0.24121    -0.156784 -0.000692679    -0.264332    -0.429565    -0.486483   -0.0444381     0.479363   -0.0195251    -0.458538    -0.391082    0.0346093    -0.275578     0.301118    -0.165644    -0.478779     0.380441    -0.350559    -0.435057     0.205971     0.121276       0.3817     0.103083   0.00126443    -0.125853    -0.260467    -0.145872    -0.186649     0.408397    -0.411737   -0.0446253    -0.154135     0.153488   -0.0435369    0.0151979     0.145224     0.343276     0.290201    -0.286228     0.424551      0.15327     0.339212     0.310682    -0.171139    -0.456478     0.346723    0.0423957     0.498243   -0.0728609    -0.350046      0.32649    -0.468897     0.001748   -0.0493456    -0.354697     0.493538    -0.380371     0.413554     0.403773    -0.173753    -0.366593    -0.434361    -0.486133     0.126433    -0.467733    -0.417491    -0.359436    -0.270978     0.490933    -0.442583     0.247756     -0.11467     0.462345    -0.367744     0.367378     0.209932    -0.382119     0.117478    -0.241165     0.192576    -0.119265    -0.435911    -0.136701    -0.299514    -0.216421    0.0361828     0.378036   -0.0689437     -0.24088     0.422708     0.490877     -0.45495    -0.306927    -0.113441    0.0255974     0.125098     0.292034     0.238212    -0.487105     0.192639    0.0661494    0.0810715     0.324704     0.392586     0.192246     0.347404     0.437069    -0.460579     0.136967    -0.414207    -0.132171  -0.00895768    -0.445011    -0.387147    -0.261914     0.211551     0.191241     0.303473    -0.448142     0.370579     0.497089   -0.0687344    -0.464929     0.451413    0.0738852     0.414603    0.0353534     0.470003    0.0323879    0.0546654     0.176189    -0.295433     0.356824     0.445733   -0.0612158     0.166446    -0.105458     0.185094    -0.410793   -0.0719786    -0.160135     0.233892   -0.0847632      0.11398    0.0825609    -0.173358     0.171025     0.371619    -0.166913    -0.080353     -0.16645    -0.350982    -0.104054     0.161297    -0.408868      0.13223     0.354544     0.402383    -0.430559    0.0394642    -0.247924    -0.308049    -0.484324    -0.247825     0.442566    -0.372248    -0.281745     0.213218     0.398467      0.39472    -0.156327    -0.311324    0.0412775     0.265036    -0.189999    -0.109314   -0.0258432    -0.139871     0.375795     0.191548   -0.0126924     -0.42635     -0.01687   -0.0726881    -0.465928    -0.271912    -0.476123    -0.129372    -0.422712    -0.167314     0.273866   0.00145476    -0.192268    -0.467388   -0.0340106    0.0357806    0.0863997      0.17736     0.209036    -0.476955   -0.0221567    -0.496837    -0.240825  -0.00552368       0.1489   -0.0547321   -0.0547394     0.113473    -0.398163    0.0312095     -0.31998     0.239676     0.309729   -0.0764369    -0.425843      0.31053    -0.264768    -0.138364    -0.385207    -0.203663    -0.250569    -0.396712     0.287233     -0.49169    -0.200535    -0.120054     0.187486   -0.0438983     0.449714     0.297103    -0.266293    -0.280589    -0.224606   -0.0194405     0.185385    -0.198427     0.108446    -0.379023   -0.0657707    -0.395802    -0.210629    -0.390519    -0.242126     0.280507    -0.268822     0.413726    -0.289486    -0.334238   -0.0724792     0.151842    -0.208712     0.341402   -0.0238916    -0.324645    -0.418774    -0.363697    -0.477478    -0.471727     0.284268     0.300091     0.314527     0.346958    -0.467318    -0.022176    -0.341794     0.347422     0.458827    -0.394603    -0.287667     0.154232     -0.32593     0.209623     0.410725     0.485111    0.0650237     0.361231    0.0222446     0.340094     0.230082     0.068592    -0.465154   -0.0109174    0.0458516    -0.030934    -0.439091   -0.0619029     0.217103    -0.480278    -0.252014    -0.465004     0.445383    -0.394198     0.399848    -0.283614     0.483551     0.398321     0.409654    -0.252609     0.202891     0.113095    0.0239612    0.0398382    -0.484495     0.206862    -0.401175    -0.181788    -0.414435     0.469593      0.11458     0.329086    -0.159235    -0.419527     0.136141     0.356059   -0.0592118    -0.416867     0.224241    0.0753634     0.269989    0.0386791     0.183536    -0.484392    -0.250901     0.199361     0.475539     0.357453     0.416805    -0.323054    -0.103959    -0.181608     0.267925     0.362474    -0.467043     0.386386    -0.339481     0.091936    -0.454493    0.0587463    -0.221458    -0.424019    -0.290797     0.106965    -0.163614     0.226289    -0.196995    -0.277728    -0.401501    -0.365549     0.331057    -0.340703    0.0360059   -0.0562136    0.0279602    -0.265991    -0.426559    -0.215992   -0.0114454     0.202521    -0.165594   -0.0579537     0.145703    -0.312058    -0.492544  -0.00503349    -0.160412     0.465694     0.196152    -0.309621    -0.186214     0.230466     0.130089    -0.122735   -0.0944197     0.288567     0.408462     0.144222     -0.29293     0.389498     0.101483     0.153733     0.071275     0.340776     0.067034    -0.139856   -0.0766693     0.410039     0.468852     -0.39562     0.411182     -0.10731     0.109798     0.432397    -0.378748      0.35376    -0.269309     0.498216    -0.100798    0.0650906    -0.306041    0.0925097     0.181829    -0.482806    -0.311819    -0.345762    -0.128776    -0.340843    -0.384181    -0.363689   -0.0199649     0.474103   0.00614084     0.462504    -0.212409        0.454     0.471998     0.029358    -0.419182    0.0409435    0.0677655     -0.31451    -0.220198     0.144443    -0.153884     0.266103    -0.159503    -0.111242     0.118821    -0.463356    -0.281172   -0.0582325    -0.381098     0.277329    -0.242401    -0.395039     -0.37237     0.330187    -0.425822     0.307076    -0.201751     -0.25836     0.364993     0.173181    -0.172361    0.0435519     0.329977     0.379992    -0.114212    -0.177746    0.0825136    -0.181387     0.203459     0.450507    -0.462574     0.220311     0.488954    -0.072815      0.38895     0.240415     0.425796    -0.436619    -0.422077   -0.0409644    -0.321396     0.371161    -0.338004     0.339268    -0.469357   -0.0310151    0.0994715     0.429533    -0.465877      0.39922    -0.389981     0.437994     0.155426     0.415075   -0.0694761    -0.332027     0.466585    -0.216515    -0.307508    -0.097186     0.216368    -0.316014     0.423398     0.268895     0.409369     0.257223    0.0135308     0.196609     0.237552     0.118458    -0.422712   -0.0712504    -0.172609   -0.0283656      0.44666    -0.294185    -0.163037    0.0401811    -0.238966      0.20902  -0.00429063     0.260999     0.207674    -0.185837    -0.307907     0.152953    -0.299581     0.204049     0.307744    -0.163363    0.0196973    0.0746253     0.465397     0.106407     0.478178    -0.366436    0.0528243    0.0750141    0.0213369      0.49482     -0.17324    -0.248122     0.255783   -0.0137738    0.0615008      0.15945    -0.479872     0.262441    -0.324108    -0.432778    -0.338526     0.145091    -0.157327     -0.27205    -0.370986   -0.0837301     -0.32637     0.196783    -0.463174     -0.29223     -0.12583    -0.205267     0.185724     0.397551     0.377079    0.0989841   -0.0376452    -0.213187    -0.314344     0.342862      0.17466      0.36124     0.146458    -0.149751    0.0277626     0.258529    -0.135127    -0.269781     0.150784     0.217716     0.300398    -0.417848     -0.15425    -0.453029     0.204392    -0.486516     0.360581     0.139155   -0.0736661     0.129569     0.186069   -0.0274192      0.19007     0.312215     0.154356    -0.494651    0.0278605    -0.387918    -0.139396     0.270277   -0.0450903     0.133719    -0.145593     0.383121    -0.217133    0.0285562    -0.425564    -0.195345     0.339293   -0.0558456    -0.460779     0.230353    0.0232129    -0.098072 -0.000915716     0.343478     0.125023    -0.133971     0.103578     0.188109     0.494183     0.176902    -0.308734     0.409069   0.00692309    -0.317144    -0.153252    -0.217541     0.231408    -0.454825     0.431828    0.0671813     0.158397    -0.103451     -0.33349     0.350462     0.106638    -0.243101    -0.134644    -0.130504    -0.252188    0.0970801     0.348859    -0.098501     0.415881    -0.251421     -0.12964     0.101837    -0.342359     0.248725    -0.344754    -0.102808  -0.00451553      0.32002    -0.382164     0.472869     0.302731    0.0100301   -0.0498428     0.299704     0.163087     0.188681    -0.460585    -0.485762    -0.357527   -0.0406567     -0.15568     0.446981    -0.418968     0.496119    -0.145547     0.155946     0.170341    -0.277731    -0.165382     0.219754     0.372911     0.360104    -0.477348    0.0807382    -0.145405    0.0024382     0.417817     0.334412     0.178687     0.427677       0.3616   0.00768645    -0.441288     0.103937   -0.0200802    -0.497947     0.415603     0.218217    -0.211811    -0.354285     0.448872    -0.179334     0.180286    -0.266557     0.334857    -0.459994     0.443323    -0.401764    -0.259645    -0.402452     0.453522     0.350662    -0.210045
   -0.444589     0.480438     0.410769      0.46167    -0.352847     0.371525    -0.259359     0.392612    -0.380292    0.0778711    -0.474504   -0.0600745     0.424642    -0.350297     0.272679    -0.208277    -0.036802    -0.309653     0.333292    -0.214511   -0.0306874    0.0331079    -0.279802     0.133249   -0.0660106    -0.186971     -0.24841    -0.353585    -0.279168    -0.441436    -0.349422    -0.302162     0.235805     0.324269    -0.348943     0.284158     0.239069     0.211168   -0.0733171   -0.0114855   -0.0638924     0.197127     0.200456    -0.151163     0.491051   -0.0242948    0.0683005     0.333231    -0.413754     0.407893    -0.400579    -0.298772     0.211172  -0.00855082    -0.143977    -0.342221    -0.217809      0.42078    0.0601643     0.214939    -0.393409    -0.425225    0.0883224    -0.263281    0.0752204     0.470606    0.0939127    -0.160825   0.00817225   -0.0196635    0.0253176    -0.416886   -0.0207996    -0.280661     -0.34821     0.356278    -0.209969     0.351638     0.340751      0.34247     0.253164    -0.274299       0.2338    -0.387714   -0.0215589    -0.356713     0.266281     0.393689    0.0308921    0.0732693     -0.14895      0.39985     0.210899    -0.228911    -0.371967     0.296061    -0.107389    -0.435321   -0.0809749    -0.288374     0.453913     -0.26505     0.414921    -0.260616    0.0197977    -0.381905     0.123386  -0.00837697     0.178014     0.157542     0.242147    0.0896078    -0.163246     0.372651     0.315012    -0.383527    -0.413159   -0.0202413    0.0508396   -0.0851871   -0.0400705    -0.413051     0.201531     0.166435    0.0524219     0.196502     0.332973   0.00580085    -0.081354     0.355742    -0.177354    -0.256182    -0.169324     0.295536     0.264706    -0.152804     0.460404    0.0194395     0.450137    -0.365168    0.0562609    -0.482698    -0.121336    -0.449075    -0.421556     -0.42143     0.204076    -0.451168     0.320079   0.00766805     0.298931     0.461997    -0.173901    -0.178365   -0.0596155     0.428965    0.0891245    -0.494314    -0.318063     0.316176     0.269512    0.0150214     0.160205    -0.475195     0.390682     0.396042     0.410268    -0.394401     0.411756    -0.178955    -0.388471     0.375135      0.47614    -0.416113     0.198165    -0.122873     0.260259    -0.357836   -0.0515098     0.270455    -0.393248    -0.220954    -0.372299    -0.133397     0.408409     0.237506   -0.0206444      0.45703     0.350716     0.361465   -0.0189923   0.00729668    0.0617253    -0.302148    -0.383851     0.394815     0.284937     0.173819   -0.0143363    -0.416833    -0.188909    -0.485725    -0.389687    0.0136657     0.205826     0.480742    0.0508057    0.0586925     0.455862    -0.399899     0.126372     0.116903     0.251916   -0.0391941    -0.114377    -0.313986     0.319685    -0.226904    -0.128764     0.104054    -0.186687     0.330526      0.42492     0.293942    -0.256373     0.214894     0.433939     0.421326     0.226545      0.35828     0.114821     0.326691     0.500305    -0.362295   -0.0993868   -0.0960239   -0.0343619     0.408542     0.460865     0.493622    0.0007647    -0.196396      -0.4122     0.359671    0.0951921   -0.0751591      0.29077     -0.26196    -0.370661    -0.254296     0.249371    -0.317402     0.365145     0.198814     0.231653     0.472124      0.31406     0.352842    -0.154047    -0.352215    -0.467449    -0.273376   -0.0917967    0.0459717     -0.46844     0.194554     0.183351     0.104468    -0.105265   -0.0490916     0.443259    -0.364017      0.35854    0.0851297   -0.0123977    -0.209883    -0.442016    -0.300094   -0.0794182     -0.11884    -0.257155     0.393361    0.0500608    -0.435071    -0.317569   -0.0935422     -0.38084     0.395693    -0.484341   -0.0123712   -0.0855202    -0.447531    -0.317227    -0.209478    -0.450446    -0.233284    0.0989056   -0.0396637    -0.374382   -0.0225845     0.136367    -0.448943     -0.33646    -0.270363     0.483714    -0.425176    -0.257909   -0.0632337      0.16469   -0.0342703    -0.464771     0.012365    -0.486789    -0.225893     0.179236    -0.448583    -0.379805       0.2504    -0.131113 -0.000213323     0.312102    -0.470727    -0.364056    -0.396358     0.205208    0.0326684     0.446605    -0.346484    0.0632141    -0.399343   -0.0633275     0.472167    -0.392206   -0.0781293     0.335944    -0.335678    -0.435647   0.00516611   -0.0271047     0.252712    -0.229951    -0.240087    -0.186233    -0.127875    0.0988914    -0.153555    -0.332263      0.02646    -0.237663     0.290445     0.312142     0.412429     0.239949    0.0341779   -0.0298363     0.145251    -0.235253     0.307947   -0.0711526    -0.484511    -0.407376   0.00467788     0.209241     0.184537     0.229071     0.148535   0.00684285     0.390122     0.101291    -0.211853    -0.485691    -0.219917     0.295277     0.488651     0.343439     0.339691     0.384768    -0.036713     0.279707     0.125769   -0.0262165     0.443736    -0.271251      0.17669     0.437937     0.469549     0.469978    -0.211726    -0.129217     0.112953    -0.460075    0.0761521    -0.129011    -0.193985    -0.425559     0.497742     0.212883    -0.201365     0.328164     0.385966     0.190948    -0.260509      0.33135    -0.263114     -0.30665    -0.186806     0.139177     0.230498     0.157239    -0.443766    -0.331831     0.307232     0.416457     0.136678     0.145681    -0.160885    -0.434974     0.431182    -0.139323     0.342956    -0.479164    -0.155119      -0.1998   -0.0107754     0.300874    -0.374727     0.191307      0.39604     0.155282     0.249184     0.175113   -0.0797291     0.277472     0.377055      0.42396    -0.391628    -0.200508     0.433938   -0.0364177     0.246204     0.381778   -0.0880085     0.160147     0.245784     0.114426     0.284957    -0.303795   -0.0647506   -0.0851182    -0.272549    -0.138521     0.108352     0.486104    -0.174973    -0.184192    -0.235193      0.45064    -0.227213    -0.361393    -0.284436     0.385371     -0.28237     0.451243     0.343613     0.279068     0.117447     0.257019    0.0590697     0.188729    -0.235337     0.108292   -0.0420034    -0.391579    -0.190567    -0.479212    -0.267404    -0.466207    -0.490362    -0.337928      -0.0981     0.251534      0.25208     0.131531   -0.0184156    0.0165033     0.269872    -0.434985     0.449695    0.0130944      0.47682     0.370216    -0.100918    0.0473804    -0.247958    -0.346957  -0.00350233    -0.299407    -0.442959    -0.425749     -0.31697     0.407886    -0.499562    -0.491148     0.333069      0.39272     0.134948    -0.435806     0.235941    -0.342425   -0.0628088    -0.485076    -0.177037   -0.0702624      0.24562   -0.0931716     0.234644    -0.315394     0.178233    -0.105487     0.343969    0.0640944     0.390535    -0.295555     0.360943      0.30808     0.248451    -0.177024    0.0257646     0.289581    0.0218846    -0.244241     0.250083    -0.159428    -0.470177     0.236219    -0.224179    -0.424704    -0.242384     -0.25174     0.392684    -0.453725     0.396798    0.0403828     0.406962    -0.296965    -0.202906     -0.14305   -0.0798942    -0.134885    -0.436075     0.199015     -0.17372    -0.367726     0.282437    -0.392425    -0.416466    -0.326714     0.349838   -0.0936427    -0.400855     -0.17972   -0.0812516    -0.443989    -0.289216      0.31037     0.220411   -0.0894027    -0.204712     0.318138   -0.0861426    -0.288628     0.153282    -0.266961    0.0695071    -0.207069    -0.278263    -0.120346     0.122188    -0.377857    -0.105536    -0.237502    -0.328063     0.469649    0.0600986    -0.216734    -0.437168     -0.17382    0.0498709     0.350615     0.116511    -0.467615    -0.497109    0.0819412    -0.162481      0.40632     0.110877    -0.207068     0.115156     0.424184    -0.196206    -0.312816     0.354697    -0.305187     0.309693   -0.0506509    -0.226109    -0.374264    -0.326807    -0.446618    0.0430655   -0.0783487    -0.455923   -0.0888097    0.0668577    -0.385287     0.440241   -0.0887017    0.0430548     0.478345     -0.23588     0.491444    -0.162022    -0.490251    -0.208884     0.254515     0.486264   0.00024818      0.45127     0.436091    -0.450769    -0.072952    -0.297048    -0.193017     0.367281     -0.29882    -0.196704    -0.380716    0.0705644     0.336844     0.141052     0.167368     -0.45142    0.0502256   -0.0888833    -0.420619    -0.396865    -0.245818    0.0170268     0.179582     -0.30489     0.249797    -0.449886     0.045892   0.00732763    -0.180875     0.306618     0.020036    -0.411238     0.497226     0.138897    0.0521295     0.277614    -0.422934     0.344661       0.3291    -0.466847    -0.097102     0.427082    -0.311932     0.439098     0.492413     0.341321     0.353406     0.253864    -0.316009    -0.425301    -0.199292    0.0867408    -0.262255    0.0583654     0.387993     0.409265    0.0932552    0.0612797    0.0198585     0.266472     0.246936     0.190708     0.394769    -0.313314    0.0789541    0.0388209    -0.267094     0.436666     0.401777    -0.232677     0.315893     0.233618     0.311385     0.446839    -0.146024     0.381976    -0.120835     0.349152    -0.195316    -0.311281    -0.251959    0.0757034     0.153698     0.486238    -0.191589     0.453078     -0.48685     0.150528    -0.355619     0.318213    -0.157696    -0.263445   -0.0673417     0.362583      0.38253     0.160857     0.470433  -0.00921283     0.391329     -0.16673     0.188124     0.198019    -0.340071    0.0579579    -0.405457    0.0838761    -0.334378     0.365246  -0.00911121     0.302754     0.146164    -0.351873     0.368876    0.0959497     0.191207     0.220698    0.0968695     0.371526    -0.103743     0.484343      0.13147    0.0741306      0.29257    -0.450619    -0.476206    -0.398885     0.362999     0.300067    0.0568482     0.271779    0.0693239     0.348084    -0.440138     0.283251     0.063423    -0.499443     0.228763     0.213485     0.390789    -0.206904     -0.28989     0.303806    0.0451712     0.477417     0.209595     -0.26739    -0.218221     0.140162    0.0750628     0.029358   -0.0222413    0.0245733    -0.365052     0.230863    0.0824196     0.438077    -0.335023    -0.129414
   0.0783035   0.00985102    0.0841514    -0.414212   -0.0100578    -0.488456     0.248415   -0.0755968    -0.284953     0.070229     0.300931    -0.382541     0.252807    -0.142146     0.206608    -0.217817    -0.241181   -0.0407489   -0.0658512     0.011251    -0.472633    -0.264897     -0.33692    -0.185311    -0.150537    -0.130767     0.271863    -0.419572     0.308774    0.0780535    -0.451534    -0.146743     0.468812     0.275978    -0.330964     0.247864     0.360609     0.395242     0.127438       0.4758    -0.342028    -0.286282    -0.380314   -0.0473859    -0.428522     0.185449     0.336416    -0.154692     0.230693    -0.259238    -0.246725    -0.168811     0.450466    -0.423247     0.464907    -0.417938     -0.42855     0.342528     0.472546    -0.231116     0.311278    -0.442745    -0.112727    -0.491338    -0.414018    -0.110253     0.208911    -0.436936     0.137409    -0.451375     0.181671     0.291099     0.224591    0.0282914     0.494289    0.0598128     0.457589     0.180136     0.260938     0.166074     0.238588     0.171078    -0.233107   -0.0210391   -0.0493582   0.00959401    -0.319879    0.0169586    -0.481937     -0.14328       0.3847     0.372559    0.0876999     0.368574      0.19788     0.130481     0.423616    -0.271526     0.136785    -0.270649     0.477798     0.376502    -0.126868     0.250571     0.120771   -0.0545665      0.33437     0.206396    0.0517015     0.111567    0.0521588     0.329327    -0.393047     0.431362     -0.28809       0.3115     0.403196    -0.159819    0.0608471      0.42495     0.468955     -0.40551     0.161805    -0.278176     0.122225    0.0817736     0.396428     0.269518     0.344378    -0.152873     0.441727     0.153965     0.163717     0.276544   0.00419751     0.497565    0.0163966   -0.0718841    -0.259419   -0.0858567    -0.132582    -0.408833      0.10598    -0.398488     0.159019    -0.451701   -0.0664455    -0.141396    0.0639666     0.421888    -0.289493      0.38037    -0.156112     0.120352     0.449582    -0.371396     0.384617     0.325874     0.308832    -0.464735     0.139914    0.0113673     0.282227    -0.150141    -0.169391     0.306656    -0.415446    -0.465468    -0.329745    -0.413274     0.332866     0.232807    -0.199284    -0.255186   -0.0247291     0.401369   -0.0117545     -0.30352     0.180235    0.0340865     0.455841  -0.00835092     0.172613    -0.330395     0.477164   -0.0402329    -0.245805    -0.357307     -0.31291     0.479871    -0.458506     0.241746    -0.440642     -0.43829    -0.156075    -0.174556      0.22807    -0.326382     0.101108    -0.342375    0.0199967     0.376512     0.421855     0.160421     0.480273    0.0439865     0.300947     0.133384      0.47555    -0.448877      -0.1572     0.317734    -0.398695     0.129192     0.377378    0.0776679    -0.313397    -0.454499   -0.0509787     0.500446   -0.0806743    -0.395692     0.102179    -0.410803     0.434257    -0.112458      0.17058    0.0611411     0.068641    -0.481212     0.268138    -0.130716    -0.225252     0.361237     0.469465     0.356802    0.0910046    0.0076653     0.243158      0.16411     0.433316    -0.325666     0.255139     0.149782     0.109558    -0.179797    -0.413978    -0.251075    -0.273463     0.340089    -0.436686    -0.270219     0.288782     0.454427    -0.376301     0.194708    -0.262414     -0.36332    0.0353346     0.468395    0.0794051      0.22981    0.0786236     0.137359   -0.0363915     -0.17467    -0.249353   -0.0603999     0.139438    0.0174809    -0.239951     0.471457     0.380455    -0.216789    -0.240916     0.141569   -0.0448383    0.0133531     0.440049    -0.123094     0.286901     0.320176     0.201083     0.143753     0.330007    -0.240379      0.35157    -0.134613     0.309293     0.495232     0.401841    0.0993661    -0.399969    -0.391811     0.285983      0.13409     -0.40629     0.422574    -0.453414   -0.0521834    -0.234818     -0.21804     0.220675    -0.360346      0.32838     0.409042    -0.210421    -0.492474     0.240899     0.226654    0.0168884    0.0915838     0.163833     0.129674    -0.427687     0.459536    -0.362474     0.206114    -0.155889    -0.160189    0.0853194    0.0701195     0.244439     0.456718     0.366775   -0.0573551    -0.341993    0.0405521    -0.405742     0.492753    -0.055429    0.0256015    -0.317385    -0.224706     0.452659    -0.463187     0.377647     0.107961     0.303093    -0.185691     0.292456     0.417114    -0.409613    -0.422169    -0.223095    0.0368298      0.40907     0.171984    -0.175273    -0.489067      0.29559    -0.341442    -0.463316     0.272487     0.457917   -0.0986543   -0.0223701    -0.401674     0.329998      0.16283     0.383262    -0.245992     0.253614    -0.178826     0.294644     -0.27373    -0.281555     0.286847    0.0816598    -0.101829    -0.115351    0.0283796   -0.0343691     0.407722     0.131228    -0.104798     0.320856    -0.368454    -0.280413    -0.157892     0.397724    -0.243574    0.0736854    -0.454352     0.370265     0.356244     0.162989    -0.293903    -0.314295     0.102653   -0.0329676     0.318223   0.00610513   -0.0506906     0.476058    -0.238986    -0.356089     0.258523     0.349976    -0.344419     -0.38502      -0.1395    -0.339272     0.184347  -0.00510186      0.22302     0.154452   -0.0768988    -0.493969     0.138122     0.300443   -0.0615673    0.0511242     0.114817    -0.239793     0.160015     0.196753    -0.280736    -0.099193     0.360198   -0.0131552      0.13825   -0.0471446    -0.254975    -0.213732     0.204818    0.0770594    -0.293698    -0.324588    -0.169703    -0.391289    -0.255187      0.14231     -0.33352   -0.0734965   -0.0110897    -0.128572     0.387399    -0.255089     0.016666     0.429059    -0.380157    -0.107065     0.171448    -0.416062    -0.109775   -0.0962142     0.124007    -0.290964     0.494045   -0.0247662    0.0703122    -0.486447    -0.295212     0.248833     0.090324    -0.162127    0.0280115    -0.142053    0.0791017    -0.244787  -0.00304919     -0.40214    -0.463954      0.40372     0.322188     0.348423     0.288728      -0.1563    -0.445421     0.270386    -0.461253    -0.183006   -0.0586169     0.299481     0.102867    -0.258667    -0.210727    -0.286961    -0.296109    -0.326437    -0.124313     0.298777   -0.0118114      0.47798     0.324594     0.358017     0.332299     0.264112    -0.437702    -0.295621    -0.058617     0.125531     0.392045    -0.119146     0.259077     0.263771     0.346498    -0.441541     0.245573     0.373297     0.395741     -0.44618     0.311902     -0.26884     0.403743    -0.127338       0.4319   0.00877524    -0.164092     0.375453   -0.0488127    -0.448582   -0.0135596    -0.257241   -0.0401815    0.0914773     0.487256    -0.116218    -0.311195     -0.20225    -0.410639    -0.138024     0.493098    -0.230095    -0.164681    -0.424921     0.379474     0.239361     0.491526  -0.00102861    -0.439193    -0.223542    0.0842631    -0.313029     0.238154     0.501773    -0.283412     0.446076    -0.316613   -0.0596863     0.212744     0.149274     0.228589     0.424709     0.410041    -0.254277    0.0252301     0.145667    0.0212803    0.0360295     0.110266    -0.132966     0.379317     0.109435      0.50185     0.445743    -0.455368     0.142758      0.14471    -0.268477    -0.265963    -0.349495     0.406979     0.190126    -0.183295     0.182781    -0.429155     0.224935     0.312762     0.169105    0.0913649    -0.330526   -0.0136645    0.0187518   -0.0309573     0.134681     0.165324    -0.263006     0.400616     0.150521    -0.238031    -0.193405    -0.367035     0.210497     0.089758    -0.290823     0.471373    0.0708199     0.484362     0.192649    -0.325896    -0.294297     0.472351    -0.149188    0.0415044     0.148508     0.370184     0.323027    0.0071707     0.363589   -0.0358207    -0.262775      0.39408    -0.456635   -0.0259936    -0.386162     0.154857    -0.161839    0.0579741   -0.0672453   -0.0772622     0.374471    -0.341032     0.244413     0.425784     0.480405   -0.0878268    -0.431144   -0.0829586     0.284714     0.088765    -0.476892     0.290453    -0.135676    -0.463866     0.147551     0.375156      0.45611    -0.332812     0.405351     -0.24495    -0.447034     0.397947    -0.482131  -0.00233304    0.0686211     0.261944    -0.451654    -0.116984    -0.159647    -0.112116    -0.467345     0.429616   -0.0485855      0.17199    -0.302124     0.260247    -0.396344     0.339678    0.0325322    -0.219438   -0.0148807    0.0747755    -0.260993     0.462521     0.120895     0.108202     0.339859    -0.481077      0.29133      0.27825      0.23872    -0.110625    -0.285932     0.370121     -0.38188    -0.153015    -0.133267     0.210993     0.326296    -0.124852   -0.0108242   -0.0167621    0.0673135    0.0523568    -0.429703    -0.395385     0.336575     0.143027     0.420393    0.0852131     -0.47418     -0.25697   -0.0693248    -0.405132     0.102326     0.352286    -0.223861    -0.245209    -0.267901     0.315538    -0.424641     0.449538    0.0293278     0.423166     0.286359    -0.274529    -0.271645     0.319723    0.0631146     0.166889     0.421504    -0.489314    -0.432576     0.104779    -0.206866    0.0816811    -0.259269    0.0137164    -0.235763    -0.357575     0.391795    -0.376459     0.429299    -0.196966     0.203647     0.307998     0.377893    -0.406968     0.432944     0.279702   -0.0328788     0.152344     0.222734    0.0529303    0.0954638     0.391167    -0.288522     0.389306    -0.219795  -0.00451313     0.225184    -0.227808     0.274599     0.133446     0.164738    -0.273397   -0.0325769     0.243615   -0.0534645    0.0600807   -0.0882868   -0.0231261    -0.150225    -0.206131   -0.0834224     0.186375     0.191099     0.105823     0.391398     0.203795     0.203281    -0.491487    -0.261581    0.0788465     0.417652    -0.465262    -0.108963    -0.102871     0.240898     0.214242     0.256857    -0.464637    -0.365216    -0.214888     0.210393    -0.339684    -0.491213    -0.152521   -0.0384046     0.235311       0.4694    -0.344499    -0.445354     0.424484     0.220479     0.106009    -0.160372     0.396566    -0.484066    0.0557303    -0.433587     0.221739
    0.378626    -0.101983    -0.335677     -0.32539     0.291233    -0.140214     0.446477    -0.223783     0.130179    -0.328786    0.0862137   -0.0348187      0.26206     0.294337     -0.21077     0.484335    -0.196268     0.465183    -0.428588     0.426712     -0.21328     0.208905    -0.280805    -0.181762     0.254789    -0.474599    -0.472626     -0.42026    -0.109088     0.176891     0.404176    0.0145679     -0.35046     -0.29887    -0.170689     0.313447     0.365771     0.175643    0.0501317    -0.113485    -0.221701   -0.0490269    -0.271572      0.24714    0.0449812   0.00282353    -0.443591    -0.491846      -0.3711     0.325413    -0.368228     0.128232     0.306291    -0.179713    0.0203936    0.0409906    -0.302375     0.207061     0.408608    -0.030205   -0.0197221     0.117658    -0.247956     0.490509     0.220965    0.0351741     0.263208   0.00235889     0.144806     0.429192     -0.49686     0.212388     0.372877    0.0348472    -0.477445     0.395407    -0.451266   -0.0877012   -0.0281339    -0.304378     0.298206    -0.363441       0.4947    -0.271913    -0.231025    -0.421583     0.117931     0.337189     0.434971    0.0563431     0.495674      0.02665    -0.165992    -0.354756   -0.0422167    0.0919253     0.283506     0.233827    0.0559152    -0.184337    -0.366694    -0.358259     0.228222     0.456435    -0.125883    -0.189737     0.375626    -0.482891     0.454377     0.461465   -0.0349346     0.329446     0.388039     0.228044     0.398459    -0.338072    -0.237123    -0.134361     0.488933     0.254723     0.286146    -0.133896   -0.0271555   -0.0898991    -0.325323    0.0768488    0.0324773    0.0409102     0.219979     0.107972     0.163405    -0.210319     0.465042    -0.144514  -0.00676853    -0.365947     0.503549      0.30038     0.325718     0.338418    0.0341639    0.0711706    -0.472209     0.182787     0.282697   -0.0943262    -0.185247    -0.227073     0.266624    0.0203644     0.351728     0.334695  -0.00582998  0.000518611   -0.0705629     0.201206     0.305993     0.422855    -0.370559    -0.169964      0.41344     0.277842     0.216022     0.317827    -0.494756   -0.0787674  -0.00435603     0.209937     0.305686     0.434828     -0.10767     0.497524    -0.456672    -0.311168    -0.282936    -0.334297      0.10188    0.0741435    -0.182252     0.274086     0.337129    -0.132509     0.170636      0.45508   -0.0182517    -0.494873     0.241765    -0.473852    -0.395157     0.230828     0.159675     0.450592    -0.110198    -0.264093     0.310831    -0.419586     0.497378    -0.160935   -0.0773359    -0.282196    -0.149924    -0.341045    -0.148775    -0.216601    -0.239291    -0.196921    -0.140624     0.363729     0.380913    -0.485829    0.0271214     0.255918    -0.295615    -0.226011     0.391636    -0.269678      0.28765    -0.100644    -0.205197   -0.0618691    -0.273103    -0.221393   -0.0305732   -0.0175525    -0.114683     0.499475     0.489617      0.25888     0.396647    -0.100991     0.226966    -0.170012  -0.00651468     -0.13319    -0.354352     0.179469     0.466811     0.477216      0.40162    -0.290201    -0.469394    -0.113472    -0.360999    -0.307851    -0.446233   -0.0175347    -0.464625     0.066332   -0.0907104     0.155794     0.432325    -0.231171   -0.0930293    -0.465032    -0.356358     0.165992    -0.298015     0.318793   -0.0990069    -0.214515   -0.0906923     0.149237    -0.147392    -0.251757   -0.0831229    -0.474651   -0.0865787    -0.415648    -0.176138     0.416154     0.091775     0.201833     0.490874    -0.317134     0.215104   -0.0356533      0.46477    -0.270904    -0.228264    -0.463178     0.317312     0.296604       0.2376   -0.0662589   -0.0270162      0.20587    0.0190606    -0.383616     0.485333     0.438441    -0.339829   -0.0744326    -0.417235    -0.238146     0.477841   -0.0968714     0.147918    0.0275911   -0.0713266    -0.184578    -0.121125    0.0599426     0.236315    0.0884205    -0.229254   -0.0242005     0.277982     0.377935     0.090701   -0.0102524    -0.302529     0.336879     0.166114     0.076129     0.412467     0.395864     0.460367     0.134846    0.0775928     0.326229    0.0883475    -0.300923   -0.0521491    -0.089684    -0.391097     -0.40554    0.0590922    -0.367348    -0.164417    -0.292742    -0.329386    -0.299852     0.416332     0.252936     0.420195    -0.452797     0.395054   -0.0273411     0.212771    0.0184401    -0.116925     0.360957   -0.0242882    -0.179893    -0.382649    -0.119172    -0.172364    -0.269026    -0.387601    -0.489058    -0.492539    -0.265039     0.484305     0.469569    -0.367422     0.264362      0.44727     0.100954     0.400047      0.27379    -0.138123    -0.383204    -0.079577    -0.196549     0.416486    -0.212296    -0.495307   0.00477359    -0.289938     0.220652   -0.0200734    -0.348458    -0.413062    0.0770704     0.291779    -0.178449     -0.15411     0.307412     0.218737   -0.0909392    -0.476493     0.356101     0.445327     0.339643    -0.196671     0.370469     -0.10308       0.2011    -0.270879     0.502028     0.289081     -0.30491   -0.0565228     0.408373    -0.453715    0.0573338    0.0565426   0.00152872     0.463197    -0.385572    -0.184299    -0.420542   -0.0511415     0.345428    -0.253911     0.172692      0.31062   -0.0157853    0.0891899    -0.450878     0.303551     0.482372   0.00288724    0.0781659      0.22343      0.22993    -0.491275    -0.348252     0.127779     0.181358     0.232964   -0.0309053     0.197091     0.200042    -0.250543    -0.347038     0.349086     0.297334     0.482224     0.257526    -0.286941    -0.246517     -0.37489     -0.35628    -0.249009    -0.313875      0.20467   -0.0436935     0.410949      0.45243     0.266535     0.168194     0.371217    -0.451799     0.354303     0.251879    0.0325831    -0.471097    0.0939979    -0.179521     0.421288     0.329318     0.271223     0.462573     0.190587     0.415187    -0.131937     0.255578     0.259197     0.457274    -0.124809    -0.309636     0.329463   -0.0484835    -0.451313    -0.117723     0.224547     0.111202      0.36873     0.468387     -0.15437    -0.258239    -0.419391     0.491223      0.24684     0.209265   -0.0791889    -0.343399    -0.430679    -0.433844     0.475811   -0.0526112    -0.320426      0.22932    0.0884513     0.292288    -0.119039    -0.244071      0.30986    -0.485237    -0.258222    -0.323925     0.118795   -0.0376279     0.378435    -0.484895    -0.398919    -0.312802     0.245125      0.14439    -0.191891     -0.32844     -0.44371     0.463073   -0.0677009    0.0460755    -0.247109     0.201585     -0.17209    -0.215024     0.249793     0.162004     0.405261  -0.00885594     -0.49086     0.438769    -0.147964     0.245539     0.338372     -0.24879    -0.280311     0.371158    -0.425936     0.366483    -0.484284     0.365531    -0.110039    -0.433601    -0.260277     0.242564     0.281116    -0.189189     0.259853    -0.447738     0.162312    -0.320032      0.30987     0.135242     -0.19667     0.357153   -0.0959968     0.363812    -0.147011    -0.115761     0.476215     0.137654     0.482942   0.00580705    -0.198308     0.244793    -0.488231     0.442007     0.285849    -0.489099    -0.461163    0.0662446      -0.3148     0.262897    -0.117028      0.47369    0.0409134     0.361433     0.353472     0.401519    0.0153977     0.101818    -0.459608    -0.181048    -0.211975    -0.189997     0.156804     0.140071     0.163001    -0.255213   -0.0416339     0.214477     -0.42985     0.272129     0.117912     0.362414    0.0717252    0.0379864    -0.116541    -0.353765     0.493065    -0.176361  -0.00903983     -0.29682    -0.397757    0.0574968     0.128409    -0.041451    0.0904065    -0.101857    -0.239184    -0.311015    -0.344873    -0.476657     0.155836     0.458927     0.255958    -0.204275      0.19492    -0.475238     0.361031    -0.277188    -0.261272    0.0618401      0.28082       0.3566     0.444496     0.453282     0.058402    -0.387632     0.105991     0.482674      0.49695     0.227758      0.17819    0.0761202    -0.355443   -0.0239495    0.0388779     0.320057      0.25258    -0.120729    -0.196381    -0.181987    -0.373893   -0.0849842    -0.370634    -0.358218   -0.0822752    -0.190215    -0.326001    -0.283474     0.202443    -0.393557    -0.368796      0.23868    -0.394047     0.437624    -0.357577    -0.116708    -0.243784   -0.0257687     0.016302    -0.325864   -0.0794727    0.0615684   -0.0452567    -0.370237    0.0535752     -0.38637     0.333267     0.257045    0.0144129      0.18311     0.302916     0.083049    -0.291165    -0.317889    0.0120936    -0.218874    -0.433571    0.0172072   -0.0610474     0.284197    -0.178006     0.455176     0.376376   -0.0630078     0.409147     -0.38848    -0.253791    -0.362858     0.351003    -0.294359    -0.225206    0.0357454    -0.454563     -0.38416    -0.200351   -0.0806285     0.174712     0.111568     0.371726    -0.190813     0.351558   -0.0893812     0.245964     0.428257    -0.496057    -0.145734    -0.119413    -0.182176   -0.0386058     0.331775    -0.202096   -0.0819227     0.098849     0.238383    -0.440767     0.449287     0.115689     0.163374     0.402623    -0.280065      0.45691     0.203622     0.375035    -0.229176    0.0761735    -0.347118    0.0364522     0.463984   -0.0614782    0.0432861     0.390837    -0.332486    -0.427544   0.00214897     0.375137     0.375605    -0.304214   -0.0684799    -0.208045    -0.317204     0.140041     0.404703     0.231814     0.479726    0.0134035    -0.157588     0.187589      0.20143    0.0785955     0.310946     0.418391     0.315012    -0.158205    -0.227324     0.277669     0.170112     0.379493     0.153768     0.117485     0.193516    -0.293832    -0.479096    -0.350961    -0.490772    -0.133552   -0.0906132   -0.0620783    -0.495303    -0.195575    -0.330182   -0.0122464     0.385793     0.116238      0.13444     0.463029     0.283366     0.228568   -0.0417705    -0.204726    -0.296064    -0.173042     0.315119    0.0126637    -0.263147   -0.0621044    0.0534622    -0.258104   -0.0483355    0.0636449   -0.0445183   -0.0772465     0.424924    -0.360162  -0.00874854    0.0420423    0.0964474
    0.492831    -0.104611     0.209225    0.0971888    -0.313655     0.358409    -0.130504    -0.186495     -0.15414    0.0262711   -0.0775375       -0.269     0.380574    -0.145629    -0.482574     0.149411     0.247916     0.254358    -0.355891    -0.316756     0.336794   0.00221365     0.442681    0.0602927     0.166598     0.345881    -0.487954    -0.379343     0.492512   -0.0679515   -0.0859175    -0.227873    -0.252376    -0.170562     0.195944    0.0583915    -0.448498      0.20843     0.196673     0.403409     0.067182     0.302633    -0.289033     0.365255     0.473692    -0.149297   -0.0989375    -0.190739    0.0527223     0.201274     0.190755     0.174642    -0.240413     0.495323    -0.316292    -0.141391     -0.09409   0.00419553     0.405409     0.280247    -0.488938     0.450694    -0.336617     0.418633    -0.264132    -0.499469     0.439233   0.00289927    -0.406636     0.185204    -0.391238    -0.482603    -0.159235     0.346021    -0.239582     0.448875   -0.0947506    0.0208978    -0.289111     0.313792      -0.1347    -0.424761     0.353583    -0.108885    0.0865949     0.375517   -0.0042146     0.127851    -0.455031   -0.0511244    0.0563459    -0.158404    -0.291156   -0.0541638    0.0587318    -0.110648    -0.354442    -0.379198    -0.392837    -0.117076    -0.258932    -0.050865     0.463962     0.310039     0.397257    0.0486546      0.24203     -0.11645     -0.42838    -0.222462    -0.216906     -0.07889    -0.299822    -0.333477    -0.177773  -0.00878805    -0.306404     0.281901     0.255947    -0.136948    -0.379945     0.461026     0.180922     0.332028    -0.313332    -0.419266    -0.222276     0.429617    -0.442463    -0.393325     0.383642    -0.278108    0.0755165  -0.00339116    -0.423722     -0.14978     0.163329     0.496146     0.266317    -0.275781     0.121711    0.0923784    -0.457927     0.036878    -0.499982     0.185345     0.428643     0.405287    -0.105255   -0.0390705   -0.0464989    -0.112775     0.488039     0.281938     0.254969     0.100709    0.0466455     -0.29372     0.230409    -0.246086    -0.394267     -0.32627    -0.386382     0.497261    -0.442402     0.320627    -0.282802     0.341511    -0.411265    0.0819197     0.387745    -0.213456    -0.425944    -0.312599   -0.0482026    -0.476203     0.157827    0.0970352    -0.297172     0.238151      0.42558     0.155854    -0.216214    -0.345779    -0.346688     0.414995     0.140691    -0.420399     0.295969     0.451701     0.156625     0.431245    -0.186863     0.455042    0.0682293   -0.0497511     0.352968    0.0929507  -0.00343524    -0.472748     0.213737     0.464931   -0.0491384    -0.285316     0.398336   -0.0216477   -0.0284753    -0.176378    -0.189523    -0.085086     0.457996    0.0885384    -0.109957     0.492667    -0.248738     -0.21581    -0.293648    0.0952869     0.484956    -0.402821     0.212994    -0.245361    0.0615119   -0.0767579      0.45996    -0.435105    0.0562082     0.454884    -0.151599     0.189859    0.0900882  -0.00768654  0.000498434    -0.454566    -0.375747     0.264582    -0.348278    -0.418465    -0.490219     0.420219     0.453828     0.106606    -0.348748     0.233557    -0.162697    -0.119004    -0.306898    -0.120944    -0.445591     0.398806    0.0312168    -0.365275     0.368115  -0.00954709     -0.34799     0.392757     0.255768     0.192352    -0.177879    -0.242389    -0.401691     0.363871     0.319444    -0.471732     0.282661    -0.397073    -0.118965     0.188481    0.0916219    -0.258107     0.338996    -0.250318   -0.0101166    -0.494983     0.276933    -0.281873    -0.480877     -0.10093    -0.486945     0.290116   -0.0530832     -0.43016     0.206948     -0.38001    -0.480215   -0.0345128    0.0982998   -0.0997237     0.379333    -0.104872    -0.377184    -0.300648     0.219803    -0.243793    0.0523175    -0.214342    -0.431808     0.105372     0.179321    -0.315984     0.413097     -0.14881     0.128667     0.107586    -0.201087    0.0864528    0.0119621    -0.119942      0.32753     0.138665     0.496733    0.0947227     0.108681     0.223729     0.157052   -0.0962092    0.0134076      0.16921     0.330549    0.0985832     0.380072    -0.336114    0.0333424     0.408415    -0.251227     0.218576    0.0809796     -0.40446    0.0241588     0.317081    -0.103839     0.117873     0.401478    0.0249608  -0.00299256    -0.223253    -0.399753     0.206718     0.330271    -0.328377     0.424174    0.0121757     0.270526     0.326118   -0.0160874     0.356039    -0.389322   -0.0769527    -0.122209    -0.202323    -0.186179     0.112386     0.311809    -0.092453    -0.105596    -0.388868   -0.0885416     0.244937    -0.323874    -0.407387     0.371813    -0.203417     0.313845    -0.466229    -0.197826    -0.101969      0.11077     0.196086    -0.266203    -0.265047     0.242007    -0.260872     0.242004     0.253757     0.155123    0.0165943    -0.049063     0.395403     0.111787     0.215554    -0.216258     -0.26362   -0.0162214   -0.0807552     0.175783    -0.407175   -0.0164135     0.448371    -0.439845     0.345809      -0.4912     0.307936   -0.0501954     0.445157     0.292472    -0.222861     0.412915    -0.101328     0.173146    -0.324918     0.189969    -0.193151    -0.264343     0.105327    -0.297748    -0.167136    -0.397056    -0.295267     0.408149    -0.266495    0.0634839     0.298137     0.437365     -0.20927     0.465202    0.0359426     0.257949     0.105043     0.489566    0.0188999     0.357842    -0.496733     0.434672    -0.448306     -0.23134     0.461038     0.358516     0.447631     0.281338     -0.20004     0.306897    -0.129557     0.207261    -0.274702  -0.00734234    -0.239531     0.262083    -0.224828     0.465392     0.156489    -0.323085      0.34322    -0.355463    -0.101118     0.217743     0.341205    -0.462012     0.203609    -0.247724     -0.27575    -0.460959    -0.246311     0.124239     0.202868    -0.251173    -0.234472    -0.121617    -0.452983    -0.162763     0.450061     0.429261    -0.183515     0.342686      0.14198    -0.377925     0.401685    0.0518949   -0.0932428    -0.152017     0.153934   -0.0944208    -0.289349    -0.147766   -0.0502986    -0.498746    0.0559686   0.00183826     0.417145    -0.471849    -0.373899     0.410231    -0.447145    -0.477531     0.347536    -0.484894     0.199029     0.180353    -0.270745     0.414106      0.32687    -0.394672    0.0853046     -0.39565     0.260119    -0.147291     -0.21559   -0.0656116     0.292322     0.475717      0.41268    -0.364344    -0.439981     0.480199    -0.144744    0.0801611     0.320212    -0.217139     0.482727     0.425105    -0.133461     0.444415    0.0585591     0.493119     0.367896    -0.325381    -0.307082     0.421344     0.366636     0.333596   -0.0183224    -0.186059    -0.146397   -0.0644189     0.205133    -0.222982    -0.382325     0.160614    -0.496398      0.16878    -0.057158     -0.32354     0.232278     0.277205    -0.193217   0.00269235     0.201449       0.1274    -0.338021     0.141297     0.250573      0.46303     0.122701    -0.326531    0.0344607     0.342837    -0.494695    -0.181464    -0.140418    -0.488366    -0.171234     0.334532   -0.0770335     0.420216     0.167736     0.108018    0.0165379     0.273773     -0.41194     0.106801     0.241176    -0.440052    -0.452924    -0.260883    -0.160681    -0.162005     0.434323     0.322028     0.296958     -0.40281     -0.32242    -0.307174    -0.406228    -0.233446     0.130891   -0.0574403    -0.444266    -0.138689   -0.0792471    -0.254061    -0.121328    0.0171803     0.088498    -0.151748      -0.1373    0.0244666    -0.122614    0.0129338     0.273979    -0.175136     0.280988    0.0343601    -0.437408   -0.0540945    -0.136657     0.294414     0.459784    -0.310446    -0.352797    -0.149756   -0.0340955    -0.176643    0.0840332    -0.417079    -0.268263    -0.491681     0.355124    -0.409516    0.0626554     0.431123     -0.15276    0.0579941     0.259392    -0.240114     0.212477     0.358228      0.23024     0.167977    -0.145341    -0.245625    -0.471901  -0.00288681    -0.460877     0.304934     0.244558     0.473233     0.317826     0.420574    -0.209391     -0.27859    -0.406472    -0.487456      0.44119    -0.141846      0.34863     0.182717     0.475469     0.196359     0.372537   -0.0218783     0.235566   -0.0847559     0.173912     0.172255     0.412938    -0.345467    -0.165212    -0.081971    0.0738987    -0.498293    -0.119682    0.0178348     0.350746   -0.0106884     0.367371    -0.378647    -0.399284     0.249215    -0.463419     -0.35303     0.422238     0.148822     0.186574      0.42849    -0.309968    -0.389039     0.163382   0.00825502   -0.0591032    -0.259046     0.157537    -0.298638   -0.0430608     0.460128     -0.25233     0.456646     0.392548     0.365291     -0.33284    -0.153717     0.279999     0.316809    0.0511318     0.348952    0.0195605    0.0246978     -0.18403     0.261608    0.0974114     -0.23228    -0.387349    0.0474937    -0.445007     -0.25839     0.278252     0.249641     0.230258    -0.323445    0.0581257     0.304152    0.0538583     0.283729     0.433967   -0.0474855     0.117542     0.322299     -0.35648     0.427059     0.245851    -0.502298    -0.259223    -0.244379     0.345886     -0.19632    -0.260621     0.337845    -0.440934     0.185216    0.0649178     0.334065     0.397017    -0.277837    -0.449572    -0.176175     0.204727    -0.139567   -0.0133306     0.319522    -0.321391    -0.400169    -0.223243    0.0259043     -0.31715     0.200771     0.312052    -0.477422    -0.062172    0.0450851    -0.229435    -0.143494     -0.22657    -0.131643     0.343307   0.00027857     0.298858    -0.043938   -0.0737122     0.221843    0.0461414      0.32845     0.329258     0.135806     0.480871     0.328356  -0.00695641    -0.421276     0.366838    -0.104326    -0.433106     0.104013   -0.0434271    -0.464663     0.438973   -0.0545129     0.249809    0.0955232     0.332563    -0.172106    -0.218881      0.13141    0.0821906     0.171469    -0.400294    -0.302308     0.162631     0.171243     0.331268    -0.414708    -0.312417    -0.476388    -0.406704    -0.312071    -0.107823    -0.465552   -0.0797917
    0.229095    0.0166821    -0.343316    -0.331993    -0.383615   -0.0105547    -0.167947    -0.209373    -0.409742    -0.246121    0.0424404     0.130346    -0.475261    -0.369172    -0.409371     0.370736   -0.0673166     0.204875    -0.239517     0.498589    -0.290071     0.420359     0.352934    -0.445385     0.227179     0.438801     0.174354    -0.408743     -0.14352     0.155374     0.199358     0.354379    -0.462143     -0.40516      0.44839    -0.332314     0.426777      0.35232    -0.234399     0.340596     0.446677   -0.0655013     0.083473    -0.212718     -0.10183     0.157094     0.346305    -0.480471     0.479664     0.295595     0.267012     0.435965    -0.412351     0.117146     0.301424    -0.142567     -0.15527    -0.270206   -0.0538605     0.321711     -0.32613    0.0415079    -0.168849     0.461525     0.396871    -0.233296     0.438323    -0.418624     0.497501    0.0844479    -0.465591     0.395108     0.435809    -0.479232   -0.0901473     -0.27096    -0.156332     0.140653   -0.0891379    -0.308801    -0.475145     0.258275    -0.118882     0.186422    -0.384226    -0.473192     0.428132    0.0225488    -0.439332   -0.0560521     0.224771     0.038962     0.212494    -0.422313     -0.34331    -0.309309    -0.432947    -0.392791     0.412786     0.385356    0.0479001    -0.388833     0.273535         0.43     0.371806    -0.262969   -0.0225976     -0.43856    -0.291292     0.325873    -0.309744     0.311933     0.104335     0.457613      0.36651    -0.492883    0.0789292    0.0624858       0.3426    0.0664446  -0.00417215    -0.402271     0.483601     0.105112     0.115697    -0.451574    -0.484031    -0.124471     0.438951    -0.300843    0.0430753      0.43334     0.076841    -0.197446     -0.31745     0.455061    -0.215987     0.460727     0.132089     0.152708    -0.183469    -0.181284    -0.138985    0.0112691     0.455577    0.0229901   -0.0137685     0.329426     -0.26189    -0.103745    0.0728545    0.0145948    -0.212587    -0.319083    -0.454097     0.234733     0.465158   -0.0962941     0.484629   -0.0743818    -0.385537    -0.319062    -0.291799     0.140721     0.276878     0.489756     0.440384  -0.00462256    0.0766139    0.0402865     0.085104     0.429087    -0.470309  -0.00472419    -0.359901    -0.176956   -0.0276648      0.25475    -0.101515    -0.407393    -0.182295    -0.392819     0.130651     -0.41168   0.00747586     0.437006    -0.109896    -0.451291     0.467106  -0.00450158     -0.43757     0.193106     0.279334    -0.425365    -0.144301     0.192592    -0.456866    -0.414383     0.213568     0.203688     0.311812     0.489405     0.387658     0.500641     0.377966     -0.36189    -0.431439    -0.260723    -0.205201   -0.0914355      0.38222   -0.0341748   -0.0632684    0.0329653     0.403525    -0.229007    -0.345208     0.440495   -0.0307623     0.205335   -0.0115589    -0.156822     0.236782     0.101675      -0.2274    -0.269646    0.0116739    -0.466524    -0.360627     0.175996    -0.310814     0.285165     0.377403    -0.488047     0.301323       0.4857    0.0717466     0.409925     0.223885    -0.310084    -0.211702    -0.226859    -0.229578     0.396085     0.481766    -0.221142    0.0876629     0.132445    -0.278353    -0.127689    -0.444658    0.0628928     0.121269     0.417407    -0.296793    -0.411629    -0.275878     0.137083   0.00558588    -0.490214      0.27415    0.0471262   -0.0784102 -0.000377888     0.499987      0.30259    -0.298337     0.128258     0.083276     0.233132     0.111269    -0.101975    -0.146136     0.231215     0.108871    -0.366846  -0.00838417    -0.127206     0.483423     0.179714    0.0476344      0.17802      0.49714     0.120728     0.269721     0.269078    -0.464184   -0.0284549     0.365189     0.436021    -0.460536   -0.0972498     -0.23336    -0.469632     0.420026    -0.144646    0.0861024    -0.130107    -0.416026     0.082671    -0.163743    -0.197727    -0.375285    -0.179943    -0.222673     0.335604    -0.197443      0.32751    0.0890639     0.128332    -0.020525  -0.00350798     -0.42198    -0.214223    -0.128089     0.277103     0.317464    -0.303627     0.177574    -0.318878     0.111083     0.369974    -0.352123     0.398049    -0.458776    0.0368814     0.373115    -0.490751      0.14383    -0.182837    -0.294954     0.486285    -0.103158    -0.234215   -0.0776681    0.0204111    -0.358468    -0.357356     0.168525     0.299287   -0.0822055    -0.287019    -0.290901     0.230064     0.184953     0.328577    0.0296473    -0.283909     0.198878     0.227922     0.235776    -0.370968    -0.426622    -0.440051    -0.361771     0.467137     0.124288    -0.426811    -0.279973     0.185403    0.0958886     0.281233     0.020465     0.329834     0.349862     0.455738     0.270054     0.415463    -0.400351     0.247724    -0.439146     0.232676     0.358223    0.0907841    -0.198386    -0.472885    0.0530944    -0.131086    -0.265465    -0.452068    -0.324014     0.390002     0.427335    -0.457015    -0.209015   -0.0251305   -0.0318668     0.389909    0.0898395     0.405628    -0.440057    -0.288524    -0.390128   -0.0161899   -0.0734479    0.0443909    -0.280305   -0.0930828     0.191235    -0.326489    0.0587489     0.163537    -0.370862     -0.43346    -0.201673     0.109175    -0.278659     0.400066    -0.399354     0.487648     0.154249    -0.097426     0.387768    -0.219361    -0.132531      0.23483     0.109669     0.340583     0.299542    -0.124469     0.475006    -0.374206    -0.251452     0.334768     0.100551     0.255933     0.137017    -0.362734     0.283823    -0.331115      0.35111     0.208627    -0.047726    -0.167871     0.139751    -0.130636      0.16467    -0.283027      0.41358    0.0747863    -0.372764     0.190472    -0.377781    -0.056376    -0.324343     -0.36242    -0.141509     0.219189    -0.260553      -0.3376    -0.301522    0.0530392    -0.324782    -0.172148    0.0175617     -0.31716     0.200156    -0.412118    -0.402063     0.292858   -0.0376339   -0.0401744   -0.0521625    -0.161695     0.471615     0.130293   -0.0802013     0.165408     0.457318     -0.30028    -0.115287    0.0486668     0.164732    0.0864801     0.337249    -0.179746     0.111186     0.212695     0.226523     0.126026    -0.289638     -0.20094    -0.159883     0.181004     0.189202     0.134767    0.0961155      0.45344    -0.373889     0.428503    -0.180848    -0.377751    -0.131456    -0.226901     0.389095     0.369694    0.0890204     0.094697     0.233732    -0.198816    -0.472051     0.182726    -0.185341    -0.445475     0.466832    0.0426198    -0.212975    -0.163207    -0.288106    -0.365193      0.48855    0.0813861     -0.39577    -0.105491     -0.30682     0.388085     -0.15473   -0.0240067     0.404059     0.216007    -0.351029    -0.403371    -0.218482    0.0300085    -0.149182    -0.479857     0.472152     0.499072    -0.383646    -0.385433    0.0482627     0.109664     0.205643    -0.182655    -0.197429     -0.26697    -0.113045     0.129823    -0.372307    -0.299659    0.0432556    -0.493004    -0.245665     0.121941     0.350851     0.251483    -0.331304     -0.38388      0.15402    -0.116375     0.256176     0.430297    -0.431106    0.0692738     0.452609    -0.192125     0.263914     0.255639    -0.319811    -0.321822     0.266096    -0.113323     0.115085     -0.11315     0.155757    0.0137709    -0.411297    0.0697325   0.00944814    -0.406914     0.334045    -0.499131    -0.330135     0.300751     0.361517     0.370095    0.0687496    -0.495021     0.213153    -0.423334     -0.35169    -0.413116    -0.493588    -0.161707    -0.101534     0.102257     0.113068   -0.0242161    -0.296287    -0.277117      0.42292   -0.0185308    -0.126452    0.0392112     0.434291     0.306209    -0.330811    -0.099933    -0.443562   -0.0191221    -0.361687    -0.254161    -0.412162    -0.497428    -0.115546   -0.0814932     0.286872     0.400484    -0.257782    -0.181155     0.254553   -0.0921606    -0.337021    -0.292818    -0.330938      -0.1432     0.408266     0.473942    -0.240763     0.211162     -0.32558     0.395265    -0.164544     0.194199    -0.135488    -0.309171    -0.299183    -0.412076    0.0252053     0.437435    0.0196995   -0.0348592     0.331873    0.0270578    0.0899773    -0.445476    0.0583028    -0.238071     0.260558     0.405821    -0.252292     0.486904     0.284809     0.458992    -0.044864     0.499209     0.364299     0.336766    -0.169508    -0.228471   -0.0773258    0.0403818     0.105158     0.206503    -0.416923    -0.030456    -0.471502    -0.322663    -0.133255   -0.0838089     0.209406     0.465468     0.230463    -0.023149      0.37045    -0.163715   -0.0998703      0.20582    0.0722668    -0.134836   -0.0238736     0.492436    -0.409868      0.30398   -0.0635748     0.418182    0.0703609     0.313337    -0.165969     0.272015    -0.404186      0.40813     0.227942   -0.0451439   -0.0765086     0.257202    -0.269732     0.151252    -0.248277     0.106917     0.104122     0.153353     0.177911    -0.321069    -0.401299     0.417648    -0.267502   -0.0639461     0.102255     0.411559    -0.143362     -0.10366    0.0848342    -0.200179     0.501936     0.370155     0.309863     0.117289     0.497219    -0.140656     0.153006    0.0648897    -0.260453     0.337587    -0.380501     0.377337     0.389628     -0.41984    -0.434877    -0.470031    0.0178456     0.419991     0.110087   0.00821857    -0.490975     0.141883     0.425887    -0.405138    -0.433059     0.169104    -0.410099    -0.123897    -0.403199     -0.41542     0.126901    -0.394418    -0.374131     0.418288    0.0238477    -0.368154     0.182934   -0.0989774     0.399397    -0.138092    -0.408981    -0.405835    -0.200988     0.221223    0.0489061    0.0294087    -0.251175     0.189032    -0.102348     0.315055     -0.16323    -0.339669    -0.191819  -0.00378692     0.359159      0.33648     -0.37077     0.184099     0.470494     0.263774    0.0500513    0.0338238    0.0836705    0.0157751    -0.192892   -0.0313838    -0.360743     0.291667    -0.192939    0.0607107     0.110494    -0.122222     0.256697     0.425054    -0.448597    -0.257035     0.233969    0.0316861    -0.311121     0.156513
    0.498089     0.471819   -0.0164297     0.284016    -0.320255    -0.296596     0.416679     0.158702     -0.44467    -0.465332     0.392099    -0.175096     0.392085     0.430162    -0.204456    0.0640799    -0.294303     0.428988     -0.47217    -0.125174    -0.135508     0.074272    -0.146978    -0.485664      0.29726    0.0249556     0.456666     0.349802    -0.036564     0.460414    -0.302578     0.146863    -0.144297    -0.419822     0.188062    -0.106658   -0.0384874    -0.495537     0.411358     0.334824     0.401268     0.322464    0.0051937   0.00689575    -0.423971     0.354875     0.444868    -0.181308    -0.166516     0.151282    -0.242235       0.3598    -0.289916   -0.0298822      0.12884   -0.0221533     0.472592    -0.259426    -0.135163     0.103807    -0.161294    -0.269678     0.225736    -0.037691    -0.371114     0.385573    -0.229181   -0.0427778   -0.0978951      0.47036  -0.00866759    -0.195473    0.0241977    -0.181542     0.106526    -0.207218    0.0240993     0.243843     0.202311     0.243642     0.402194   -0.0900767    0.0451914     0.282997     0.405498     0.163157    -0.279262    0.0904192     0.252284 -0.000458719     0.477683    -0.341312   -0.0439602   -0.0934068    -0.240174    -0.378263    -0.434371    -0.356684     0.359159    0.0500122    -0.390921     0.152427    0.0711383    0.0706432   -0.0409697   -0.0957258    -0.323636    -0.238112     -0.26259     0.171045     0.216263    -0.251356    -0.353179      0.19765     0.020119     0.199165    -0.228807    -0.369295    -0.380822    0.0792693      -0.2411   0.00128189    0.0431211    -0.256542    -0.234895     -0.23707     0.096891     0.263209    -0.394426     0.346851     0.312075    -0.100392     0.350493    -0.278633     0.487709     0.275885    -0.230783     0.242777     0.270068    -0.340557    -0.460313     0.263516     0.181723     -0.19216   -0.0417974    -0.394672    -0.403265    -0.283843    0.0460133     0.279367    -0.244114      0.21634    -0.144951    -0.454231     0.410003     0.268895    -0.238693    -0.423109     0.450431    0.0704774    -0.102853     0.467331    -0.498412    -0.491247     0.482719     0.323725     0.108396     0.398779    -0.253639     0.190125     0.465002     0.485995     -0.44653     0.243387    -0.384661    -0.366002    -0.269747     0.388122    -0.320341     0.100362    0.0766394    -0.153325      0.39717    0.0353589     0.433657     0.036112    0.0843134     0.427146    -0.211815    -0.214665    -0.215353    -0.308678     0.143717    -0.033456    -0.255037   -0.0292891    -0.455309    -0.416846    -0.435384     0.201394    -0.487971     0.333355    0.0622131     0.191266    -0.483513     0.222253    0.0980921     -0.49634    -0.468634     -0.17634      -0.1131    -0.493535     0.407475     -0.28056    -0.467827     0.368835     0.396887     0.402467    0.0654192     0.229379     0.332584     0.449666    -0.306747    -0.155388      0.18093     0.185204     0.361366    0.0825703    -0.344863     0.235047     0.465938    -0.166191   -0.0419918     0.388995     0.391694   -0.0181764    -0.204091     0.406024    -0.154557       -0.464    -0.380782      0.11934     0.404084    0.0740391     0.418071     0.218545      0.26873     0.169702    0.0180393     0.239392    -0.448192     0.103343     0.259548     -0.48369    0.0726395    -0.202636    -0.189403     0.220952    -0.364467    -0.372395  -0.00159673   -0.0266388     -0.42848    -0.467423     0.457805    -0.319709       0.2804   -0.0849781    -0.427028    -0.345932    -0.309976     0.444664    -0.428634    0.0690289    -0.360125    -0.122882     0.381009     0.210866    -0.287379    -0.387699    -0.313086     0.145984    -0.426568    -0.166197    -0.176295    -0.380938     0.301696    -0.382928  -0.00531874    -0.199068     0.328657    -0.142163     0.238252    -0.398211    -0.211572     0.144487     0.201767      0.33992     0.286706     0.242302     0.182044    -0.184524    -0.488634     0.330368    0.0170105   -0.0863145     -0.16038    -0.434594  -0.00790851  -0.00675791     0.169525     0.426193    -0.100963    -0.190113     0.318097    -0.314807   -0.0722999    0.0413482    -0.227061    -0.181155     0.380979      0.37634     0.191547      0.46683    -0.263776     0.183843     0.299131     0.256508      0.17521     -0.30851   -0.0695691    -0.471055   -0.0289908    -0.439001    0.0196614     0.145102     0.332446    0.0162279    -0.495619     0.471173    -0.271316    -0.255534   -0.0519404       0.1635    -0.490945     0.309277     -0.27879    -0.207099      0.11562    -0.291903     0.493058     0.251859     0.330826     0.415778     0.403396     0.400704    -0.426273   0.00197372    -0.331615    -0.269595    -0.494231    -0.462353     0.301455    -0.359679     0.221501    -0.314107    -0.102247    -0.257995    -0.139616    -0.370692     0.489978     0.252141     0.243488     0.183877    0.0194852     0.235994     0.406254    0.0312279    -0.296794     0.198807    -0.291628    -0.393981    -0.295877     -0.34457    0.0518058     0.425966     -0.26114     0.017526     0.199685     0.247754   -0.0342025    -0.112267      0.21699  -0.00666805    -0.339122    -0.373096     0.137904    -0.456023     0.188598     0.498038    0.0510726     0.249819     -0.42834    0.0569081    -0.168284  -0.00913181     0.176106     0.300977    -0.490751    0.0202494   -0.0888097    -0.253279    -0.489057     0.496835    -0.491922     0.313041   -0.0853514     0.342599    -0.019503     0.148005    -0.470264    -0.184136    0.0592468     0.142073     0.406837    0.0219941    -0.486724     0.477251    -0.221758    -0.398258    -0.119932    0.0467923    -0.376608     0.303976     0.342753     0.425016     0.312095     0.446656    -0.245702    -0.169165     0.429853     0.099589    -0.394896    -0.159735    -0.291998     0.317001     0.253452   0.00299337   -0.0152144    0.0578958    -0.252314    -0.389731    -0.312215    0.0367463    -0.446285   -0.0895091    -0.111321   0.00644181     0.497003     0.207992    0.0996498    -0.297889    -0.405738     0.377291    -0.472715   -0.0691206    -0.270699     0.016734     0.304823    -0.113466     0.313934    -0.304428    -0.435401     0.334441    -0.148492    0.0802271    -0.192875    -0.121419    -0.391431    -0.499543     0.340396     0.263724    -0.386805    -0.445271    -0.155472    -0.395416     -0.38858    -0.495497    -0.154719    -0.352695    0.0290774     0.205107    0.0944262     0.117633   0.00264822   0.00410705    -0.160817     0.167427    0.0670999    -0.348738    -0.436159    0.0148082    0.0954197   -0.0015926     0.139295      0.41462     0.186604     0.389825    -0.121182     0.416872     0.108584    -0.065574     0.339167    0.0755084    0.0675448    -0.163596     0.047986      0.23889    0.0180029    -0.250693   -0.0315979     0.158576    0.0705703     0.374033    -0.338223   -0.0976515   -0.0771632     0.389035     -0.37131   -0.0889199     0.169309     0.219477     0.346543     0.237594    -0.117835     0.487695       0.2632     0.374644     0.126818     0.151397    -0.389995    -0.352653    -0.159772     0.255278     0.197052  -0.00124935    -0.487645    -0.186378    -0.100651    -0.473886     0.395645     0.187383    -0.439794     0.179233   -0.0409364    -0.109506    -0.255533    -0.465928    -0.459729     0.237248     0.364314      0.47123     0.385289    -0.324737    -0.244049    -0.423244    -0.250081     0.205471   -0.0313119     0.469065    -0.176633    -0.101448     0.166211      0.28651    -0.479524    -0.306261     0.374257    -0.282201    -0.345979    -0.406319     0.237889    0.0567629    -0.165132     -0.26777    -0.405606   0.00501542    0.0624345     0.096427     0.401418    -0.403982     0.255293    -0.234315     0.443585     0.397069    -0.456345     0.273464    -0.147477   -0.0633448     0.307016    -0.448237    -0.107763     0.494896    -0.463496    0.0468116    0.0674776     0.391117    -0.119385     0.431113   -0.0178702    -0.141747     0.161215     0.196993    -0.267151     0.357492    -0.123978     0.330502    -0.165745    -0.355779     0.313922     0.417348    -0.498354     0.298666    -0.250635     0.473992    -0.077506     0.010279     0.318121     0.476209     0.277248     0.203685    0.0800002     0.211914    0.0340247   -0.0983762    -0.251166     0.458731    0.0944929    -0.212866    -0.237568     0.128837    -0.487894    -0.092956    -0.193982     0.370206     0.066065     0.295409   -0.0301478    -0.112928    -0.297979     0.319034    -0.328724    0.0852459   -0.0741681   -0.0733863     -0.29085   -0.0453131   -0.0972083    -0.330681     0.418013    -0.443251    -0.261645    -0.170049   -0.0103956    -0.289067     0.470604     -0.34436    0.0831504    -0.252022   0.00170298    -0.160925    -0.122985     0.459765     0.442351    0.0897842    -0.410976     -0.35239    -0.459916    -0.446415    -0.266106      0.45689    -0.476692    -0.217319    -0.452902     0.106084    -0.025171    0.0928685     0.344429    -0.307827    -0.275846     0.236883    -0.475273     0.254328     0.365592    -0.474809 -0.000881684    0.0352259    -0.109488     0.303526    -0.325365     0.164549    -0.391877    -0.109428   -0.0957597    -0.318253     0.116712      0.25821   -0.0828291     0.490529    -0.079966   -0.0624527     0.087542    -0.284837    -0.466346    -0.496285     0.390545     0.442122    -0.153314    -0.219508    -0.485679    -0.173953    -0.283079    0.0245776    -0.283247     0.454057     0.148221    -0.297921   -0.0450856   -0.0575782    -0.330381      0.23154    -0.443434    -0.244594     0.451281    0.0272615    -0.128209    0.0106977     0.486492     0.455746   -0.0466913    -0.437746     0.434999    -0.321202    -0.286642     -0.42058    -0.301799    -0.176834    -0.388521    -0.237409    -0.129698     0.425075    -0.261026     0.145179   -0.0752557      0.23147    -0.314894     0.281471     0.194165       0.4491     0.486547     0.307896    -0.432528     0.249066    -0.319851     0.359253     0.396467    -0.315172    -0.387087    -0.394655    -0.131123     0.200928     0.220677     0.155952     0.369688      0.46212     0.156926   -0.0849787     0.402833    0.0354818    -0.280974     0.159846     0.407211    -0.355519    0.0868136    -0.390433
  -0.0257203     0.454409     0.452692    0.0488895    0.0553205    -0.305273    -0.282215    -0.104121   0.00916714    -0.254914     -0.39793    -0.256676     0.365291     0.314779     0.296863    -0.423255     0.232302    -0.415357    -0.183432    -0.220139     0.102404    -0.125343     0.325265    0.0240706    -0.364332    0.0143884    -0.223654    -0.287399    0.0551206    -0.239702     0.158823   -0.0950222     0.384654    -0.357424     0.239922     -0.20652    -0.351243    -0.014331   -0.0591757     0.278191    0.0521877    -0.466618      0.18572  -0.00963899     0.370812    -0.275834     0.462567     0.338729   -0.0475801     0.186254     0.334047    -0.259798   -0.0383068     0.355967  -0.00314748     0.255673     0.431444     0.417396   -0.0960802     0.267966    -0.280938    0.0996376     0.397151    -0.400501    -0.403437    -0.160918     0.055404     0.490176    -0.168833     0.161088    -0.364445     0.151024     0.290454   -0.0925909    -0.490878     0.383103    -0.490337    -0.195658    -0.178457     0.470657     0.267729    -0.333965     0.117529    -0.080591    -0.201434    -0.234169    0.0359013     0.262159    -0.283497    -0.298727     0.176356    -0.199717     0.389007    0.0768354    -0.350301    -0.142817    -0.289064    -0.289325     0.192392      0.32047     0.241106    0.0813881    -0.281874     0.226593    -0.126412    -0.328158     0.220694    -0.357433     0.241099      0.33387      0.31199    0.0401577    -0.301833      0.48492    -0.273578   -0.0481817    -0.028028     0.286255    0.0284089    -0.480103    -0.278308   -0.0253526    -0.291158    -0.216675     0.353902    -0.240521     0.269157     0.433954    -0.419648     0.105095   -0.0590956     0.235012     0.402712    -0.383412    -0.441322     0.413082    -0.184227   -0.0607122    -0.373269    -0.155713     0.102586     0.496646    -0.201303   -0.0554633    -0.101991     0.144402     0.130128    -0.228878    -0.297116    -0.437684     0.193466    -0.409461   -0.0142483   -0.0351528     0.171055     0.223114     0.204113     0.119084    -0.414934   -0.0290281    -0.278939    -0.239315      0.22484     0.355315    -0.477352     0.476453     0.397158    -0.134017    -0.321049    0.0161852    -0.121596    -0.291219     0.234872     -0.19846     0.494809     0.289652     0.304072    -0.285795    -0.346011 -0.000602906    -0.419744     0.388062    -0.429516    -0.160316     0.263959     0.345772     0.138584     0.384016    -0.295347    -0.164993     0.417762     0.395553     0.302204     -0.37668     0.312604      0.35793     0.202151    -0.352732     0.050862     0.229811     0.183842     0.317362     -0.47136    -0.454357    -0.407306    -0.423425    -0.208391     0.335614    -0.182437    0.0927406    -0.274608     0.252736     0.245071     0.455711   -0.0969984     0.232393 -0.000658911     0.448708    -0.420676    -0.303675    -0.189613     0.317757     0.294303   -0.0008127     0.480032     0.273993    -0.178575    -0.235996    -0.337934    0.0730119  -0.00303419    -0.407604   -0.0819777    -0.313594    0.0316567    -0.151967    -0.102733        0.101     0.492719    -0.465282    -0.489372     0.118202     0.320642    -0.393732   -0.0188702    -0.387311    0.0996406     0.143154    -0.325597     0.333808   -0.0446824    -0.490713    -0.198131     0.186408    -0.167403     0.244966    0.0442207    -0.103312    -0.445471   0.00209186    -0.388165    -0.365393     0.473411   -0.0128098    -0.242955     0.201879     0.199585      0.33037    -0.452408    0.0502522    -0.397321     0.123149    -0.202514    -0.355008     0.131571     0.055771      0.38677     0.160412    -0.227688    -0.356196    -0.458938     0.060022     0.345409     0.196933     -0.44159    -0.160953     0.414382    -0.315032    -0.141631    -0.214329     0.244786    -0.128097     0.211177    0.0436465   -0.0291747     0.380329   -0.0319564    0.0611452     0.423236     0.347336    -0.370218    0.0587549     0.481163     0.336154     0.436196   -0.0166991     0.352108     0.449882    -0.332632   -0.0449674     0.210415     0.146631    -0.106239    0.0544434   -0.0824806    -0.501111   -0.0681483     0.380436     0.278946    -0.356878    -0.266501      0.45663     0.148664     0.339756   -0.0419604     0.486322     0.229542     0.368575     0.233619    -0.250129   -0.0116459    -0.358495    -0.347958       0.2793     0.444259     0.326499    0.0164229     0.336528     0.438178    -0.188162     0.245504    -0.031711    -0.202269     0.260133    -0.491849    -0.329317    -0.416026    -0.179189     -0.18931    -0.469456    0.0752222     0.485746    -0.169243    -0.495488     0.164495   -0.0556539    -0.394901   -0.0589688     0.135779     0.241862     0.256758    -0.231647     0.297771     0.453189     0.357736     0.390865    0.0707815     0.284841     -0.50182    -0.325254    -0.415891    0.0965326     0.135626     0.387274    -0.179964     0.360913    -0.312652    0.0311128   0.00829368     0.472188    -0.218751    -0.213519     0.379095  -0.00564013    -0.258391    -0.386189      0.30814     0.172414    -0.438913    -0.421752    -0.352496    -0.281299    -0.459378    -0.483935   -0.0346137    -0.053769     0.462398     0.246677     0.457341     0.231681    -0.111947    -0.347081    -0.102209     0.455783     0.378422    -0.380854     0.471732  -0.00145848    -0.235838   -0.0937322     0.115752      0.10481     0.362052      0.47065   -0.0659459    -0.437756    0.0660805     0.448337    -0.380885     0.111232    -0.139412     -0.19485     0.352946     0.362292    -0.232414    -0.203953     0.040919     0.240366    -0.414766     0.101817   0.00383028     0.107285     -0.18686    -0.302971    0.0709223      0.31317     0.072961     0.245755    -0.279315     0.426754    0.0226993     0.449524     0.208846     0.475837    -0.379258      0.24414     0.244647     -0.10479    -0.121627    -0.359105   -0.0467377     0.344786     0.445397    0.0628586    -0.162381     0.199125    -0.141645    -0.424285     0.374306    -0.410562     0.128165    -0.274739    -0.462689     -0.49206     0.378879    0.0179166   -0.0410253      0.20007     0.283914    -0.270168   -0.0198128    -0.292251     0.046709   -0.0801135    -0.252599   -0.0377463   -0.0665929    -0.109369    -0.204654    -0.267532    -0.349131    -0.340016    -0.113693     0.242685    -0.417797    -0.201477     0.199292    0.0157038     0.482334      0.24485     0.300023     0.447156    -0.213552    -0.287372     0.128317     0.140111    -0.242542    0.0261558    -0.209983    -0.216806    0.0061936    -0.282426    -0.113502    -0.187801    -0.281161     0.101237    -0.155549     0.346082    -0.235581    0.0287629     0.269202     0.270764    -0.260754     0.440121    -0.108486    -0.305934      0.14776     0.381983    0.0905245      0.37322    -0.416464   -0.0520237   -0.0593251    -0.317858    -0.106333    -0.158581  -0.00624494    -0.367447    -0.401091    -0.492289    -0.458641     0.315788   -0.0598841    -0.172161      0.12845     0.240943    0.0325798    0.0346189   -0.0738766    -0.258446    0.0633197    0.0628551     0.492705    -0.343541     0.377564    -0.314294    -0.367733    -0.122084    -0.361063     0.293061     0.292899    -0.430781    -0.415171     0.383538    -0.487007    -0.295456    -0.174648    0.0777806     0.277403  -0.00177875    -0.395318    -0.451019     0.137977    -0.262404    -0.331186     0.388552    0.0244088    -0.357738    -0.161581     -0.22454    0.0873911  -0.00413017    -0.427825     0.268784     0.279654    -0.139188     0.467536     0.300878     0.299085    -0.227145    -0.447434    -0.326327    -0.105554     -0.48375    -0.263048     0.395524    -0.465836     0.234383     0.215216    -0.141618     0.287858      0.48629    -0.136985     0.185087    -0.475535    -0.111339     0.124401     0.220655    -0.406867   -0.0495041    -0.227305      0.40322      0.13058     0.363553     0.475246    -0.394312    -0.106143    0.0369434    -0.253814     0.341147     0.359909    -0.260392   -0.0536027    -0.319159    -0.152444     0.329482   -0.0928108  0.000259997    -0.324959   -0.0414627    -0.310796     0.372691   -0.0609825      0.44872     0.343076    -0.323619    -0.307085    -0.245124     0.293746    0.0731081     0.241371   -0.0490589    0.0957073     0.472568    -0.243829    -0.480654    -0.438836    0.0220995     0.337171     0.424293    -0.391811     0.221209     0.336459    -0.354274   -0.0595598    -0.469822    -0.108781    -0.389544      0.43838    -0.313669     0.209137     0.211664     0.490555    -0.185216      0.17849    0.0282524      0.32566   -0.0458462     0.455038    0.0806725     -0.40777    -0.160323     -0.43101      0.24474     0.242829    -0.495638     0.398078     0.118688    -0.099756   -0.0324319    -0.429144    -0.145192     0.174049    -0.410356     0.315551   -0.0295849     -0.19033    -0.195514     0.416309     0.258376     0.368716    -0.348953    -0.382495   -0.0173604      0.27309     0.189598     0.323713     0.146996    -0.481553     0.270466    -0.229122    -0.286809     -0.18594    -0.290755    -0.200331     0.491992     0.340292   -0.0497861     0.171084     0.159545      0.30449     0.431042     0.153129    -0.300339     0.159178     0.330468    -0.437492    0.0482387    0.0300882   -0.0553196    -0.447955     0.467588    -0.178338   -0.0548196     0.494594   -0.0394434     0.083569    -0.468148     0.161932     0.358258    -0.313177    -0.234944   -0.0378566    -0.250855    -0.280227     0.424082    -0.167734      -0.1309    -0.125338    0.0720151    -0.206227    -0.309252     0.271978     -0.23604    -0.241837     0.355611    0.0148848    0.0359397    -0.140846   0.00205201     0.325094    0.0542748    -0.385249     0.265227     0.255004  0.000156532     0.301662     0.299595    -0.205476    0.0277712    -0.415861    -0.385349    -0.237128    -0.100946     0.157383     0.268507   -0.0772106    -0.393701   -0.0260589      0.39895     0.086864     -0.35204    -0.137795    -0.423882    0.0529346     0.439861    -0.445476     0.295855    -0.462664     0.428105     0.316398    -0.399241    -0.183693     0.233486    -0.113431     0.308595   -0.0109538   -0.0700873       0.2781     0.121456    -0.421025     0.372391    -0.338679    -0.419639
   -0.155709     0.369632    -0.480024    -0.189703    -0.103067     0.404071   -0.0653109     0.162984     0.196721    -0.210188     0.107622     0.179354     -0.43662    -0.380597    -0.500522     0.485447     0.417458     0.223174     0.177705     0.254021     0.236781     0.490504    -0.150163    -0.320957    -0.204559   -0.0489785     0.180296    -0.187671    -0.463671     0.444886     0.468982    0.0860679    0.0120745    -0.103384    -0.460635     0.198448    -0.116142     0.356061    -0.213818   0.00761637     0.132939     0.415461     0.469762     0.169044     0.353694     0.180084     0.489737      0.14252     0.435182     0.490154     0.455161    -0.299692     0.302875    -0.137782     0.224997     0.213868     0.412294     0.301777       0.3053    -0.169326     0.392809    -0.260915    0.0267303    -0.303516      0.31911    -0.226778    -0.314221     0.435938    0.0364838    -0.311583    -0.194342    -0.404266     0.425214     -0.29806    -0.282982   -0.0948942     0.126603    -0.232811    -0.141648     0.457161     -0.27689    0.0952763     0.438687    -0.368159    -0.368701     0.444881    -0.482693     0.225206     0.392279     0.262448    -0.370075    -0.436353    -0.298257     0.395362     0.332551    -0.159477      0.14414     -0.14431    -0.326923    -0.448081   -0.0769016    -0.206869     0.408434    -0.483187     0.397157     0.305364     0.371535    -0.146808     0.274066     0.421557    -0.258366    0.0556204     0.211114     0.176316     0.105958     0.297405    -0.289912     0.420822     0.238104    -0.419214    0.0239762     0.176471     0.139123     0.469011   -0.0727263     0.212861       0.3095    -0.464273      -0.1508      0.16827    -0.231883     0.417238    -0.401409     0.452686     0.393344     0.278802    -0.446437    -0.384842    -0.405745    0.0515155     0.281536     0.246979    -0.181464   -0.0593261    -0.499224    -0.404752    -0.350595      0.41717    0.0957949     0.483568   -0.0652072    -0.043158     0.257814     0.434401    -0.228633     0.477836    -0.254047    -0.121394    -0.415988      -0.4524    -0.306834     0.189422    -0.177677    0.0238354      0.21063     0.384159     0.125833    -0.293316      0.24629     0.149458     0.482578      0.45825   -0.0423994     0.483533     0.226871     -0.28143     0.472903     0.339288     0.378705     0.129917     0.428493     0.448447    -0.143285    -0.396409     0.321794     0.496187   -0.0764285     0.357565    -0.322381    -0.395469     0.168421    0.0409459    -0.089822    -0.106482     -0.44795    -0.212233    -0.317623    -0.238192   -0.0124765     0.224562     -0.24603     0.486079    -0.034222     0.235509  -0.00719532    0.0206964   -0.0805312     0.259571     0.436969    0.0261334     0.396896     0.250416    0.0685984     0.199972     0.408746   -0.0330746    -0.133538     0.407337     0.387485     0.445721     0.030753   0.00583518     0.442398     0.432101    0.0198814     0.136442    -0.119924    -0.382091     0.468951    0.0504101    -0.387085   -0.0176272    -0.229943     0.110204    -0.487245   -0.0947143    -0.505122     0.460386     0.126308    0.0383134     0.315645   -0.0550895    -0.287764     0.219923     0.297459     0.360663      0.18417     0.365394     0.161577    -0.298877     0.289999    -0.287135     0.129367    0.0926181    -0.166703    -0.318952     0.224603     0.493362    -0.106248    -0.408476      0.27146    -0.469352    -0.306077    -0.245627     0.269833     0.162975    -0.438476    -0.179169     -0.10733    -0.168302     0.319475     0.211661    -0.040547    0.0145758    -0.423363     0.419317    0.0318603    0.0897477    0.0547277    -0.467621     -0.24296   -0.0804918    -0.430582     0.398326     -0.21052     0.239194     0.164362     0.218462     0.394339     0.234845    -0.224816     0.102463     0.398723      0.26156    -0.103968   -0.0470735     0.227143    -0.161582    -0.365404    0.0796909     0.358029    -0.175882     0.456946   -0.0594587   -0.0470532     0.137447     0.020019     0.284659    -0.415557     0.360278    -0.273041    -0.276053     0.158665   -0.0362226   -0.0489007    -0.189932     0.305112    -0.130983    -0.407569     -0.23162   -0.0196174   -0.0132105    0.0958673    -0.360671    -0.379174     0.274795    -0.349356   -0.0727438   -0.0214568    -0.267887     0.223544    -0.492707     0.217053    0.0658019     -0.20209    -0.412021     0.145024     0.152226    -0.216173    -0.427838    -0.410564     0.193553     0.478595     0.188996     0.198359    -0.497868   -0.0173449   -0.0515677    -0.059633     0.451416    -0.259072     0.442998     0.163696    0.0522952    -0.232048    -0.481382    0.0745157    0.0118057     0.466005     0.181146    -0.370225     0.399578    -0.214458    -0.133092    -0.400137     0.398059   -0.0871241     0.308189     0.341031    -0.450774   -0.0923256   -0.0666571    -0.308175    -0.251378      -0.3433    -0.104412    -0.477471    -0.192722     0.159325     0.115302      0.29534    -0.301239   -0.0347542    -0.180382     0.286951    -0.314065    -0.459176    -0.492271     0.331658     0.381701    -0.313352     0.336663     0.351768    -0.375572     0.460708      0.23919    -0.203436    -0.146788     0.157433      0.15836    -0.446503    -0.251599    0.0996723    -0.123407  -0.00154726    0.0932506    -0.051223     0.420437   -0.0753302     0.209303    -0.273385    -0.284019    -0.473794   -0.0599726   -0.0862758     0.293089     0.171389    0.0120366    -0.490172    -0.394166    0.0251935     0.281627     0.118712   -0.0731183     -0.24276    -0.332042    -0.315503     -0.11958   -0.0442467    0.0935462  0.000542186     0.206693     0.479702      0.42145   -0.0583303    -0.425457      0.15078    -0.219373    0.0799025    0.0401855   -0.0155563     0.091697    -0.145902    -0.101827    -0.223117    -0.107859    -0.333335    -0.071588   -0.0574878    -0.358643    -0.447931    -0.298036   -0.0724931     0.470418    -0.338529     -0.21705   -0.0431698     0.344651      0.31006     0.422003     0.148279    -0.164315  -0.00261583     0.353722    -0.182649    -0.327737    -0.496999    -0.409551     0.232313    -0.115442     0.130099     0.488214     0.221769     0.434417     0.128315    -0.321985    -0.102795   -0.0430701     0.449955     -0.29816    -0.406513    0.0722173     -0.45013    -0.193372     0.148684    0.0875787    0.0872956    -0.484072     0.337343     0.271751      0.19272     0.396139   -0.0976496    -0.419886    -0.397373     0.443692    -0.305518    -0.326596   -0.0427769    -0.233813     -0.14376    -0.202878    -0.137669    -0.293839     -0.35214    -0.383762    -0.190083    -0.017792      0.45472     0.243706     0.288181    0.0232352    -0.153402     0.403316    0.0179107    -0.260665     0.170989    -0.484868     0.227393     -0.39973     0.367047    0.0154057     0.134342    -0.436585    -0.203792      0.02201    -0.134444    -0.347837    -0.487223    -0.373876     0.364982    -0.477259    -0.347252    -0.393424   -0.0206757     0.433137    -0.120367     0.473154    -0.222442    -0.411653    -0.296821    -0.164234     0.051319    -0.443846    -0.446133    0.0156948     0.425809     -0.26291    -0.113881     0.140911     0.374412     0.276648    -0.226166    -0.302499    -0.104747    -0.287465    -0.199576    -0.275624     0.109812     0.185859    0.0150955    -0.168857    0.0793976     -0.02964     0.200763     0.475217     0.466853    -0.189518     0.447962    -0.248707    0.0530627     0.371569     0.175276    0.0537799    -0.157643    0.0165573    -0.134407     0.476405    0.0189055     0.270302   -0.0645052     0.239477    -0.310732    -0.205147     0.237144    -0.281048     0.489058     0.391982     0.261568   -0.0652289     0.119487      0.28069   -0.0737727     0.437857     0.258767    -0.285189     -0.49403    -0.370821     0.136721     0.474244     0.483556     -0.36836     0.347331     0.476597     -0.41472     0.417372    -0.343288    -0.473429   0.00631644    -0.110248    -0.350228    -0.192548    -0.390831    -0.252799    -0.124943    -0.268685     0.252838      0.49404    -0.470454    -0.207196    -0.409414   -0.0115406     0.431943    -0.315245    -0.437395     0.224607     0.240588    -0.309649    -0.403161   -0.0156327     0.197799    -0.452299     0.300899     0.374379    -0.252752    -0.134403    -0.350487    -0.320416    -0.138031     0.101073    -0.105571    -0.499515   -0.0111404    -0.161964     0.103235    -0.172031    -0.157477    -0.112987      0.47334    0.0870082    -0.101607    -0.337053    -0.455169    -0.207829    -0.016933    0.0663866     0.149498     0.223806    -0.129757    -0.124929    -0.190546     0.312069    0.0642922     0.430182    -0.228154    0.0774686     0.425873     0.382881     0.337809     -0.15252    -0.494621    -0.123708     0.360624     0.273488    -0.428553    -0.140872     0.192831    -0.188329     -0.39028    -0.365205     -0.37834     0.385716     0.225469   -0.0791583     0.291232    0.0203418    -0.240279     0.459852    -0.399066     0.453053     0.061995    0.0730223    -0.182951     0.271976     0.453165   -0.0900596    -0.374753     0.336288    -0.460352    -0.399496    -0.313195    -0.347826    -0.229692     0.328266     0.242799     0.175917     0.167813    -0.488734     -0.46427    0.0657159     0.316132    -0.299336     0.421284    -0.484615   -0.0429634     0.248368     0.325834     0.254036    -0.484683    0.0933568     0.431558    -0.315175    -0.317726     0.142317    -0.476961    -0.342029     0.014873    0.0889539    -0.431178     0.481834      0.07376     -0.48001     0.252074    0.0600055    -0.157526     0.247844     -0.40957    -0.357885    -0.111666    0.0220562     0.314522     0.253039     0.349258    -0.229634     0.454719    -0.198921     0.212085     0.333076     0.258801    0.0422569    -0.212518    -0.344396    -0.258246    -0.481088     0.256692   -0.0741848     0.446649     0.183781     0.153362     0.276625    0.0482678     0.399052     0.309716      0.21034    0.0893118    0.0925979     0.121948    -0.408485     0.144441     0.306563    -0.135093     0.236303      0.16697    -0.349608   -0.0957329   -0.0397339     0.207559      0.28119      0.20322     0.449549   -0.0419439    -0.104454   -0.0459709     0.255756
