W1
    0.225331   -0.0427732    -0.172548      0.23365    0.0199829     0.142093    0.0174224    -0.170625     0.083476    0.0512611  -0.00274564    -0.196419   -0.0722704    -0.262309    0.0563724     0.202914    -0.147239   -0.0159266     0.187178   -0.0682317    -0.265961    -0.100991      0.17738     0.211998    -0.239367    0.0448962       0.3516    0.0353791    0.0432721   0.00781438     0.440852     0.261346     0.303229     0.325602    0.0832121    -0.182132    0.0179921     0.124388     0.263268     0.119552     0.227136    -0.274087     0.195805    0.0880448     0.126529     0.132381    0.0810411    -0.176559   -0.0175671   0.00822448    0.0795828   -0.0908842      0.36992   -0.0232762     0.137018    0.0535499   -0.0738492      0.28613     0.294709     0.206277     0.138305    -0.133754     0.229748    0.0666928    -0.157809     0.127278    -0.141299     0.180248     0.243519      0.25278    0.0188658     0.243407   -0.0413317     0.112183     0.260611   -0.0741122     0.362614   -0.0742457     0.134472   -0.0326087    0.0647106     0.306129    0.0265788    -0.155014   -0.0301631     0.067905     0.124737     0.190162    0.0240562     0.251585     0.075563     0.197624     0.119768     0.139455     0.047837    -0.312561     0.035627     0.202686     0.319386   -0.0753372   -0.0687618     0.093541   -0.0404867     0.224598     0.240159    0.0530369   -0.0635724    -0.140293     0.277839   -0.0838611     0.167464     -0.32606    0.0976747     0.104298     0.264759     0.205049    -0.115054     0.140735     0.263182    -0.117625     0.117804     0.433397     0.259133     0.139058   -0.0776754     0.315867   0.00939657    0.0614823    0.0643481    -0.141763    0.0120191    0.0337112    0.0683552    -0.118769   -0.0713897   -0.0480415    0.0562333    -0.319806   -0.0556031      0.31861     0.195886   -0.0579796   -0.0224015    -0.187648     0.102917     0.125684     0.010945    -0.131844    0.0973955     0.116236     0.184996    -0.120793     0.169339     0.313947    -0.131528    -0.171994   -0.0486649    0.0335871      0.12235    0.0532145     0.323424    -0.263596    -0.121897     0.154056   -0.0930414      -0.1505    0.0623342    -0.126781   -0.0902617    0.0727558     0.155683    0.0986825    -0.311446   -0.0230086    0.0249935     0.273873    -0.203736    -0.134723     0.233852     0.294977     -0.30615    -0.142154    0.0124586   -0.0147591   -0.0868702    -0.154586    0.0252517    -0.225518   -0.0206449    0.0946761    -0.115619    -0.111735    -0.233646      0.31947     0.129577     0.115877   0.00156365     0.161747   -0.0391137     -0.19507     0.196054   -0.0350539   0.00249999     0.162823   -0.0739823    -0.173698   -0.0504764   -0.0890002    0.0973303    0.0376828    0.0426037    0.0523055    -0.212192     0.182486   0.00163231    -0.239176    0.0232943    -0.178655   -0.0864152     -0.21252     -0.10389   -0.0830875      0.01553      0.15386     0.401065   -0.0846055     0.263847    0.0194799     0.109493     0.226437     0.120169     0.146394     0.054741    -0.125738    -0.177687     0.131826     0.215324    -0.368429   -0.0232852     0.140583    -0.149267    -0.204125    0.0181927    -0.178399    -0.179489    0.0153345     0.170048  -0.00409826   -0.0755913   -0.0478306    -0.118859   -0.0832068    -0.107536   -0.0722852    -0.237027     0.057899    0.0325511   -0.0847482     0.142646    0.0827521     0.275894   -0.0213747  0.000305908    -0.075547    -0.175787   -0.0433455  -0.00412166   -0.0997791     0.181935    -0.248017     0.107494    -0.281835   -0.0775582    0.0532379    -0.237682     0.169945     0.143905     0.324916   0.00523586     0.201632    -0.285773   -0.0101557    -0.275371     0.485864    0.0566843    -0.109272    0.0659905    0.0491141     0.209533  -0.00254381    0.0824333    -0.150507    -0.129866    0.0864749    -0.283826     0.298881    0.0656762    0.0477417    -0.031467     0.318451     0.108493    -0.127249    -0.142597    -0.228489     0.154658    -0.185836    -0.110769     0.225914    -0.088643     0.227341     0.330354     0.333048   -0.0816177    0.0574386    0.0649726    -0.109798   -0.0569786     0.378863    -0.152732     0.139468     0.136019   -0.0159584     0.138598     0.288079    -0.134026    -0.263543     -0.11733     0.287808     0.149118    -0.335995   -0.0264472    0.0540864     0.221022    -0.100999     0.157913     0.138407     0.154573     0.181694   -0.0238363    0.0867206    0.0946287   -0.0700827  -0.00849798    -0.144905    0.0895535     0.307524    -0.009499    0.0755112    -0.196553     0.185323   -0.0858738     0.134274     0.157015    0.0524244     0.176982    0.0806138   -0.0482624     -0.18281   0.00299835   -0.0195956     0.294488    -0.231034   0.00809994   0.00987439     0.205144     0.050268    -0.292592     0.251885  -0.00426203     0.128945   -0.0783412   -0.0112329    -0.211734     0.216104    0.0409527    -0.205014    -0.346858    0.0973476    0.0334726      0.12695     0.102927  -0.00164006   -0.0904298   -0.0533191     0.299358    -0.112824    -0.100762     0.272245      0.20544     0.176337      0.39503    -0.182658    -0.132283   0.00924414   -0.0988469    -0.137731   -0.0279662      0.48885    0.0411118   -0.0203425   0.00485894     0.222098  -0.00597904    -0.251639    0.0843637    0.0277754    -0.163902    -0.110289    -0.202382    0.0431862    0.0205041    0.0332934      0.22748   -0.0638759     0.144343    -0.226637     0.153281     -0.17679    0.0752338     0.254254    -0.033848    0.0447258    -0.123662    -0.273463    -0.145283    0.0453795    -0.192237     0.122322     0.236145  -0.00734999     0.136433    0.0750911    -0.250438     0.410914     0.188502      0.12411     -0.16752    -0.167096     0.296405    -0.091703    -0.162619   -0.0115708     0.217785    0.0703184    0.0877766    -0.132559     0.342322     0.212794     0.238332    0.0634813   -0.0880659    0.0100278     0.164977     0.319292     0.223758    0.0311587    0.0108934    -0.253199   -0.0908981     0.101439     0.103465    -0.378736    -0.127241   -0.0473221   -0.0281901   -0.0496435    0.0235756     0.195992   -0.0165587    -0.180497    -0.119751    0.0786486     0.256238    0.0137292     0.347467     0.110162    0.0775153   -0.0440453     0.153986    0.0529143    -0.242209    -0.278578     0.187461     0.203515    -0.168326     0.154282    -0.114315     0.287655    0.0551625    0.0736815   -0.0642236     0.154325     -0.21641    -0.354574     0.367692     0.116655     0.255557    -0.165494    -0.171677     0.182004   -0.0184942    0.0311932    0.0345371     0.141157     0.324491     -0.13528     0.215755    0.0885092    0.0978779    0.0204651     0.206403    -0.139558   0.00341048    -0.190169    -0.366817    -0.278658     0.191154     0.155719    0.0554405     0.230222    0.0955278     0.162387    -0.177405     0.185529     0.138779    -0.133731     0.120493    0.0979771     0.276275     0.125931   -0.0101539   -0.0585223    0.0747219     0.146416    -0.251346   -0.0148645       0.2685   -0.0909114   -0.0673739    0.0773712     0.242464    0.0592356     0.285295   -0.0830649  -0.00637285    -0.228604     0.296082    0.0717157    0.0742553     0.065869     -0.01979     0.256791   -0.0896642   -0.0780259     0.175824    0.0880149    -0.046391    0.0254288   -0.0482683    -0.161736     0.157946     0.104694    -0.206557    0.0107754     0.199778    0.0559928    0.0953283     0.160714   -0.0172952     0.236036    0.0114595  0.000724697   0.00157628   -0.0123169    -0.147585    0.0555916    -0.140691    -0.321003     0.409857    0.0551763   -0.0428812     0.285541    0.0452703    0.0531176     0.286464    -0.201036     0.187785    -0.195552     0.103556     0.203337    0.0342704     0.015155    0.0704143      0.31287     0.203152     0.219412    0.0791212     0.142184     0.295593     0.145698    0.0929022      0.37241    0.0395654   -0.0388069    -0.179722    0.0639325    -0.143074    -0.115685    -0.142315  -0.00290633   -0.0704277    0.0420466     -0.15255    0.0655155    -0.146293    -0.107576     0.256545   -0.0600073    0.0697135     0.106166   -0.0592793    -0.136146     0.181746     0.021891    -0.205789    0.0925909   -0.0567211     -0.10906     -0.18034    -0.352304    0.0231789    -0.014748   -0.0321195    -0.037351   -0.0129436     0.147988   -0.0756115     0.203152    -0.041642     0.159913   0.00469414     0.124981     0.180017     0.218287     0.499733    0.0238909    0.0376053     0.198631     0.246939   -0.0547562   -0.0219307    -0.265577    -0.157171    0.0783028    0.0159179    -0.127746    -0.114258   -0.0810098     0.083578    0.0449319    0.0565825   -0.0787777     -0.15102    -0.246471     0.218669     0.101815  -0.00307108    -0.097993    -0.106943   -0.0668648     0.281514   -0.0723555    0.0755481    0.0282271    0.0922678     0.148731   -0.0683964     0.206563     -0.16404   0.00469935    -0.115626      0.13783    0.0196536   -0.0388905    0.0186952    -0.221827    -0.133736     0.278393   -0.0337723     0.413918     0.129789   -0.0558543    -0.121819    0.0307251   -0.0205427    -0.176213     0.215118    -0.142699    -0.117126    -0.144541     0.118362    0.0699801     0.128687      0.31495     0.225735    0.0610944    0.0139677  -0.00757697     0.142862     0.111117    0.0724348     0.245583     0.280826    0.0574979     0.210284    0.0346358    0.0699861     0.143996     0.179081     0.205351     0.203845    0.0475936      0.05085    -0.180663   -0.0500536     0.162057     0.170414    0.0143865   -0.0107233   -0.0911737    0.0958018    0.0427723   -0.0779186    0.0505747     0.136195     0.122112   -0.0427818    0.0586699    0.0657858    -0.011245     0.217521    -0.156267   -0.0645388    0.0137035     0.241028    -0.116502     0.136842    0.0386743    0.0981334    0.0792569     0.155452   -0.0692468   -0.0127562     0.170294    -0.265675   -0.0520235     0.207834   0.00813071     0.313275    0.0728403    0.0624704   0.00664766     0.195166     0.205412    0.0290442    0.0473029     0.167204      0.37127   -0.0322652   -0.0321906     0.156626     0.134956   0.00697381    0.0719564     0.129937     0.312849     0.244661     0.417255     0.114643    0.0805847    0.0269463    -0.341148    0.0828832     0.413702
    -0.01052   -0.0347347     0.171642     0.150041    0.0410248   0.00521677    0.0063821    -0.176226     0.169202    0.0658498     0.375163     0.312932    -0.127207   -0.0987843   -0.0283843   -0.0955421    -0.121934     0.175736    0.0879975    0.0848278     0.182512    -0.159815    0.0805346   -0.0871652     -0.17866     0.091899     0.203082     0.136971     0.127936    -0.142482   -0.0760128    -0.033828    -0.106859   -0.0778976    0.0668807    -0.148897     0.257902    -0.219264    0.0118117    -0.186142    -0.118755    -0.149983     0.254945   -0.0457473   -0.0165181   -0.0888002     0.192642     0.120455      0.18117    -0.105612    -0.115475     0.117645    0.0924304   -0.0155493      0.05756     0.201341   0.00401994    -0.160336    0.0221884    0.0862848    0.0849834   -0.0700709    -0.112713    -0.140446    0.0311948   -0.0207948  -0.00949543    -0.196658    -0.347636     0.123298   -0.0154938     0.177147     0.371877     0.426103    -0.132847    -0.132842    0.0377643    0.0752307    0.0734272    -0.186372    0.0159208   -0.0304836      0.23161    -0.124934     0.235919     0.134193   -0.0224399   -0.0904007   -0.0709741   -0.0987882     0.113996    -0.256033      0.11127   -0.0695518     0.150528      0.17152    -0.106742     0.307819     0.209774     0.273526      0.11769   0.00825661     0.474951    -0.229723    -0.059504    -0.197997      0.15031    0.0220064   -0.0149939    0.0672132    -0.252072    -0.234878    -0.193879    -0.202043 -0.000680799     0.354506    -0.201354     0.180719    -0.114823   -0.0168997     0.113168    -0.158773    0.0401056     0.221151    -0.101199    -0.106344    -0.331686   -0.0536023    -0.080026    0.0276841     0.261988     0.193613   -0.0278241     0.400037    -0.206215    -0.283495     0.166239      0.23188    0.0105261    0.0611446     0.439352     0.391264   -0.0364292    0.0953227   -0.0572669     0.110742     0.225446    -0.137526     0.221199    0.0119459     0.441938     0.429812   -0.0002964    0.0748598    -0.334207    -0.124553    -0.251006    -0.256922    -0.225063   -0.0359904   -0.0818263    -0.039671    -0.219735     0.144287     0.217153    -0.161193    -0.135064     0.116793    -0.173442  -0.00545341     0.161063     0.181791   -0.0536396    -0.156452    0.0457764     0.167246    0.0165426    -0.059362   -0.0101315    0.0187174     0.299566     0.158895     -0.12807    -0.201557  -0.00145779   -0.0735286   -0.0791966    0.0457405   -0.0399605   -0.0325374     0.413823    0.0246498   -0.0042101     0.419684     0.100982   -0.0659435    -0.105185     0.489469    0.0287778   -0.0140467     0.185383     0.195771     0.232858     0.275363   -0.0962052     0.155869 -0.000162799     0.197487    -0.172939   -0.0755111    0.0208845    -0.193665    -0.285359     0.437852     0.232999   -0.0695015     -0.12197     0.282419     0.350129    0.0803006    0.0177703     0.242079     0.177344     0.036729   -0.0607525    -0.172641     -0.25813     -0.11897    0.0477012     0.124603   -0.0518326    -0.270127    0.0142745     0.155317     0.179851   -0.0815351    -0.147663    -0.222767   -0.0845367    -0.061858    -0.255103     0.109386   -0.0765481   -0.0512666    -0.114281    -0.117863     -0.24879    -0.203853    0.0759977   -0.0497274     0.196726     0.334916    -0.109161    -0.306669     0.380166   -0.0141048    -0.233661    0.0730057     -0.06666   0.00806625     0.399567   -0.0806777     0.158874     0.289255    0.0685692    -0.117878    -0.151531    -0.120466    -0.136805    -0.291094    -0.259539    -0.197129   -0.0669384    -0.234446     0.163499    -0.111662    -0.307365   -0.0882935   -0.0984563     0.308816     0.197827    0.0122103    -0.318328    0.0761813     0.243777     0.171569     0.279461   -0.0923666    -0.103027    0.0111152    0.0875442    0.0815891    0.0338433    -0.194472    -0.115248    0.0516914    -0.127634    0.0745147     0.195556   -0.0266847    0.0209934     0.310043  -0.00113348     0.259316   -0.0690466      0.23876     0.109995    -0.143186     0.365523  -0.00442309   -0.0914358   -0.0215716    0.0361792    -0.172068     0.239311     0.317106      0.28149      0.11543     0.102516     0.208489    0.0904373    0.0428645    0.0495549    0.0281105    -0.126439     0.041027     0.076121   0.00589609    -0.191579      0.10426    0.0904338     0.235357     0.245702     0.269885     0.300381    0.0800716    0.0989137   0.00136076   -0.0219878      -0.1191     0.355328     0.188731    -0.164321    -0.156341   -0.0944959   -0.0194369    -0.102677   -0.0522291     0.205038     0.154123    -0.198707     0.090998     0.216979   0.00986994     0.189315     0.204892    0.0789091    0.0343651   -0.0559035     0.158609    -0.118273     0.117464     0.210735    -0.101241     0.034922     -0.10305     0.196747     0.111989    0.0962235    0.0652168     0.201009      0.23447   0.00266104    -0.115103   -0.0215401   -0.0181545    0.0919038     0.229151       -0.295   -0.0987882     0.377338   -0.0534441     -0.14276    0.0704607    0.0824966    -0.239201    0.0123307    -0.100357    0.0396173   0.00266128     0.168937   -0.0851701     0.232788     -0.24225     0.392886    -0.148325     0.159066     0.217374     0.275063    -0.166548     0.016962   -0.0323797   -0.0373215     -0.24024     0.196266    0.0238761     0.164713    -0.075265    0.0797928     0.195468     0.349695     0.227101    0.0735116    -0.131006     0.120256     0.129033     0.407024     0.113132      0.12188     0.108908    -0.362075     0.220502   -0.0408768     0.141979    -0.109803     0.273155     0.187971     0.283663     0.400397     0.225835    0.0404297     0.129163    0.0944993    -0.058606   -0.0654926    -0.138353     0.105559   -0.0556031     0.012294    -0.194609    -0.011624     0.173412     0.200153      0.13165    0.0240462    -0.191998    0.0840484   -0.0741616     0.165397     0.120568     0.226189    0.0246722    0.0708489      0.18489   -0.0771769    -0.337337    0.0615864     0.170615     0.114144     0.236471    0.0379883   -0.0392573     0.205816    0.0345129   -0.0181772      0.14343     0.128438    -0.108151     0.157447    -0.376097   0.00494826    0.0741618    0.0986262   -0.0408691     0.200767   -0.0213141   -0.0130176     0.219136     0.298737   -0.0474581     0.109168     0.189023    -0.203885   -0.0017429    -0.177213     -0.15825    -0.222302     0.302071      0.04076    -0.113195     0.224592  -0.00687949     0.223216    -0.117322    -0.215422   -0.0962716   -0.0533721     0.185804       0.2399   -0.0686456     0.118461    0.0249877   -0.0499143   -0.0950042    -0.088089     0.200864    0.0329461    0.0947717     0.117146     0.341448    0.0112432    0.0787396     0.157321    0.0243565    -0.109219  -0.00702269    -0.032329   -0.0389158    0.0681914     0.153874    0.0174697    -0.222608     -0.23492    -0.338849    0.0358613   0.00818267    -0.245708   0.00714824   -0.0308125    0.0892263    0.0827869   -0.0355664    0.0390272     0.327795     0.110675    0.0942033    -0.052179    -0.102296   -0.0447964    -0.159391    0.0806196    0.0230622     0.121151   -0.0249656    -0.056939     0.160871      0.14229    -0.060187     -0.15004    0.0230863   -0.0442901     0.337326    0.0623331    0.0583054   -0.0374663     0.153176     0.396013    0.0257057    -0.239023    0.0343149     0.116701     0.117463     0.105861     0.124555     0.210583     0.389593   -0.0496292    -0.147599    0.0757252     0.134998    -0.227489    -0.274327    -0.381836   -0.0119034    0.0266736     0.165159   -0.0486364     0.123009   -0.0467079     0.278695     0.145579     0.466192    0.0304321    0.0034435   -0.0776169    0.0268642    0.0163162   -0.0872062  -0.00689882     0.334091    0.0657751     0.185345    0.0203079    -0.339198    0.0407185    0.0815901    -0.117865    -0.045329    0.0502146    -0.255975     0.042264     0.294766     -0.23575   -0.0569991     0.136589     0.235858     0.180066   -0.0750578    0.0323288   -0.0317701     0.023866     0.408447     0.161546     0.065009     0.199192     0.155168     0.280307   -0.0221222  -0.00954735     0.129892     0.381256   -0.0649258    0.0376427   -0.0824174     0.105881   -0.0204256     0.307104     0.230492   -0.0334939   -0.0882212     0.075682      0.05099     0.226824   -0.0808078  -0.00274456     0.103193    -0.146995     0.224316     0.128442     0.341533    0.0658481     0.058604   -0.0207375   -0.0635752    -0.137583    0.0558343    0.0880046     -0.14629     0.090316    0.0359357   -0.0345388    -0.115613    0.0708503     -0.15589    -0.170367     0.306098    0.0785271    0.0907718    -0.198096     0.186684   -0.0656048    0.0424314     0.257412     0.135463     -0.10232   -0.0250042    0.0514528     0.202607     0.295812     0.315048     0.150095    -0.225055   -0.0750763     0.267976   -0.0678792   -0.0305314     0.529933    -0.116189     0.113762     0.216961    0.0566053     0.392913   -0.0753645     0.324699      0.30435   -0.0586895     0.351861     0.261975      0.14791     0.262747   -0.0456323    -0.117205     0.305663     0.104981     0.199325      0.18778   -0.0962531    -0.169556     0.323389    -0.118978    -0.164726    -0.323281    0.0335823   -0.0619379    -0.149492    -0.185912   -0.0459213    0.0231118    0.0249258     0.155848   -0.0022241    0.0789422      0.27041    -0.107657    0.0834205     0.130809     0.287424      -0.2394     0.256815   -0.0276801    -0.051887   -0.0768082     0.345358     -0.13968   -0.0298805    -0.113191     0.332855     0.314446     0.294144     0.165362  -0.00431096     0.379405     0.191169    -0.105916   -0.0651975    0.0124723    0.0102208     0.101153      0.20867    -0.149618     0.236065    0.0214335    -0.209516   -0.0504434     0.160888     0.352279     0.293751     0.230292   -0.0503615    0.0496539     0.170645    -0.119563    -0.205087     0.323891   -0.0111083      0.16209    -0.085364    -0.159255    0.0743356    -0.252438      0.12811    -0.271261   -0.0333351     0.154323    0.0921627     0.245445   -0.0421885     0.225935   -0.0130381     0.194637    0.0567057      0.15571     0.228626      0.21704     0.129145    -0.276668     0.137234    0.0583082      0.17043     -0.09184     0.408107     0.181204     0.205305   -0.0622749
 -0.00366559    -0.314182   -0.0736747    -0.115685   -0.0236086      0.15035     0.402761     0.311197   -0.0807791     0.209794     0.164053     0.251785    -0.147379     0.188101    0.0677886     0.376593    -0.208691    0.0743721     0.112185      0.17375   -0.0448019     0.126498    0.0179751     0.153483      0.06304    0.0186464   0.00484083     0.211208    0.0324845     0.118527   -0.0754225    -0.075404    -0.181557     0.247804     0.202668     0.208019   0.00969854   -0.0995252    -0.303928    0.0994784   -0.0722627  -0.00928078   -0.0222044    0.0407741    0.0357597    -0.113692    0.0733044   -0.0751723    -0.136966     0.361865    -0.199422    -0.257604   -0.0498618     0.134454    -0.116275    0.0847372    0.0352662    0.0406073    0.0589786  -0.00581945   -0.0310831     0.214024     0.112704    -0.317648     0.380255    -0.109953    0.0361506     0.176211     0.210646     0.293386    -0.150639    -0.111142 -0.000652244      0.13183    -0.142314    0.0373882   -0.0276051    0.0152937   -0.0357507    -0.287149     0.112461     0.134501     0.139823    0.0415485    -0.103764    -0.139636  -0.00916646       0.1083     -0.11706    -0.161069     0.144412     0.102081    -0.373376     0.175821    -0.272586   -0.0858308      0.12707   -0.0466816     0.175176   -0.0911683     0.191884    -0.147043   -0.0772907    -0.120999      0.14277      0.24507      0.15577    -0.217626     0.138078     0.124564    -0.109984     0.207777     0.285433    0.0757838    0.0299599    -0.106882    -0.140309    0.0856179     0.136422     0.257483    -0.081865   0.00169969    0.0378168    0.0267401    -0.253163     0.128953    0.0287732    -0.133563  -0.00594145     0.087591    0.0757434     0.381182    0.0801686    0.0476506   -0.0504404    -0.120394     0.108396    0.0788812    0.0431542     0.129073  -0.00348953    -0.221558     0.041486     0.401158     0.169567   -0.0195872     0.141381    0.0344155     -0.17803   -0.0858089    0.0619435   -0.0981588   -0.0578074   -0.0766379    0.0763268      -0.2122    -0.144708    -0.134313     0.269947      0.25667     0.101059    0.0721175     0.189052  -0.00658241     0.231485    0.0291491    -0.162874      0.42311     0.106585     0.149987     0.208401     0.148496    -0.162449     0.249196    0.0712506    0.0979285    0.0415999   -0.0574399     0.041052    -0.167102    -0.160451     0.154625    -0.129343  -0.00244173     0.108498    -0.124745    -0.175888  0.000583287    -0.195993     0.125362   -0.0406849     0.176434   -0.0121465    -0.056215     0.131388     0.104162    0.0343217   -0.0279529    -0.106903    0.0544869    -0.013401    0.0264436   -0.0846565    -0.212756  -0.00976647     0.346055     0.144784  0.000221559   -0.0459383   -0.0825874     0.217283     0.240777   -0.0447193     0.117727    -0.136936    -0.112486 -0.000418861    0.0968409     0.198287     0.108415    0.0789314    -0.246171    -0.174154     0.197308    0.0337748    0.0128094   -0.0296688    -0.075226    -0.138168    -0.025695    -0.042249     0.214599   -0.0404893     0.162122   -0.0699475   -0.0757619    0.0170836   -0.0986175    -0.127631   -0.0248558    -0.157777    -0.204474    -0.014281     0.223536    -0.182769   -0.0621485    0.0071624     0.176325      0.04976   -0.0719106     -0.14575    0.0116408      0.17956     0.211933     0.215614     0.213261     0.152911    -0.231117     0.183388    -0.170504    -0.161127    0.0826739     0.112373    -0.133668   -0.0205251   -0.0619217   -0.0802166     0.231844     0.169484    0.0110752    -0.195192    -0.277318     0.236363     0.153469   -0.0644636   -0.0202766     0.158278       0.1683     0.167071    0.0658425    0.0224833    0.0937849     0.162391     0.108153      0.43975    0.0787111    0.0315933     0.140481  -0.00118467   -0.0352364     0.402835      0.39835    -0.105324      0.19542   -0.0227521     0.160536   0.00382418   -0.0132252    -0.251458      0.19739     0.163124    -0.128683   0.00609298    0.0696582     0.233864     0.401919   -0.0936196     0.138612    -0.144494     0.125348    0.0279969     0.140512   -0.0393775     0.438473   -0.0336094    0.0709159    0.0387696     0.223824    -0.053083    -0.234083   -0.0226992     0.145057   -0.0303247     0.273913   -0.0377744     0.182671     -0.11157     0.170913     0.049015 -0.000298731     0.105294     0.195935     0.295657     0.171893     0.204617     0.168245     0.248078    -0.123924    0.0817838    0.0132881    -0.210479    -0.258603     0.104869    0.0613217    -0.188829     0.104793    0.0896329   0.00975693    -0.148442     0.152955    0.0245377      0.13364     0.288384    -0.207958     0.318032     0.102389   -0.0536046     -0.26959    0.0561311    -0.200913      0.18099      0.19444     0.131981    0.0529578     0.072113  -0.00574544    0.0423932   -0.0480666     0.104005   -0.0817564    -0.014042     0.254197   -0.0221831   -0.0825797    -0.164286     0.060586    0.0755624    -0.144551   -0.0179275   -0.0602474    0.0445428   -0.0634432     0.153855    -0.019681    -0.241053    -0.252154   -0.0158829     0.185769     0.284496     0.422172     0.125639    0.0176251   -0.0593061    -0.135333     0.277254     0.112967   -0.0314728     0.230703  -0.00422309    0.0778992    -0.135816   -0.0342976     -0.10577    -0.133209     0.132321     0.144222    0.0355922    0.0431183  -0.00606421     0.221942   -0.0412047   -0.0411458    -0.224855    0.0111777     0.318533     0.055045     0.216663    0.0281665     0.150553     0.218181    0.0695372     -0.10866    0.0815009    -0.200781    0.0919767     0.188481     0.148328    0.0941338    -0.238896    -0.199014     0.113992     0.138238   0.00700532     0.252288    -0.128546   -0.0835324    -0.070863   0.00114278     0.117604      0.28911    -0.129115    0.0374557    0.0685596    0.0494891     0.389958    -0.329945     0.381246    0.0259076   -0.0307597    0.0121809    0.0976794    -0.231591     0.212392    0.0919836    -0.176517     0.210963   -0.0425048     0.243052    0.0348466     -0.21997     0.140812     0.243069    0.0765897    -0.105489   -0.0798173   0.00115508   -0.0406628     0.172766    -0.154561     0.200634    0.0199564   -0.0342163    0.0114841    -0.141454     0.102416    -0.110549    0.0188281    0.0159043     0.380892    -0.204095    -0.157724   -0.0146465    -0.159665    -0.135096     0.244086    0.0358747     0.422373   -0.0262082    -0.378801    0.0620725    0.0418586  -0.00463865     0.131135    -0.042597    -0.239982    -0.243105    -0.208367    0.0743187   -0.0297501    -0.154892     0.222451     0.146674    -0.148403     0.209517   -0.0823834    0.0857522     0.188704    -0.129353     0.316406     -0.10843    -0.196456     0.234622   -0.0433201     0.270645     0.105612    0.0712912     0.336219    -0.122671     0.158927     0.201805    -0.193387    0.0814308    -0.242688     0.183998    0.0857044     0.014486      0.17543     0.150478     0.129061    0.0145465   -0.0655956    -0.311983     0.402676     0.383004     0.306685      -0.2033     0.226599    0.0311939     0.214007   -0.0932391     0.174989    0.0169136    0.0912955    -0.203533     0.415963     0.181865   -0.0289228    0.0726304   -0.0867611    -0.250491     0.146534     0.038043    0.0366099   -0.0350727     0.211316  -0.00555429     0.189883     0.228175     0.204824    0.0361889     0.203406    0.0531043     0.401633   -0.0100086      0.15456    0.0705139    0.0831331    -0.277967     0.105986     0.312527   -0.0422878    0.0974944    -0.381758   -0.0305367   -0.0343675   -0.0673536   -0.0649834   -0.0657957     0.257453     0.373107   -0.0849293    -0.157079     -0.17582      0.01403   -0.0374275     0.313006    -0.127499    -0.240055     0.190395      0.14447  0.000470527     0.311084     0.122337   -0.0688359   -0.0433093    0.0413864   0.00244932     0.353189     0.246346    -0.219723    -0.233544     0.235378    0.0449143    0.0412517     -0.20919      0.12317    -0.152503    -0.233126    0.0740198    -0.155636    0.0768771    -0.059992    0.0863017    -0.248668     0.113082    0.0485033    -0.078171  -0.00181149    0.0532996   -0.0100308     0.187843    0.0829567    0.0792778   -0.0583421   0.00761257     0.113884    0.0951729     0.174727      0.15108    0.0459872    -0.152862    -0.123168    -0.076871    0.0803125     0.162807     0.272306    -0.153528    -0.263596    -0.163199     0.240718    -0.112113    -0.153722     0.127798   -0.0359432     0.450713     0.212472     0.308902     0.429539     0.313922    0.0949641    0.0196094     0.140891      0.14781     0.159465    0.0182358     0.140358     -0.30911     0.269215    -0.296096   -0.0710698     0.409034     0.333087    -0.136296     0.188539    -0.186952    -0.033091    -0.218596     0.026581    0.0154079     0.222886     0.245152     0.309095   -0.0010666    0.0185106   -0.0409843     0.138751   -0.0338061    -0.218237     0.301177  -0.00248325     0.244958    -0.226966    -0.317087  -0.00607287     0.213271    -0.190378     0.249423     0.357463    0.0268721    0.0855089   -0.0728446  -0.00250894   -0.0712205    -0.111321      0.20364   -0.0715617    0.0821546    -0.223227    0.0029584      0.13767     0.263913     0.087016     0.223442      0.12047   -0.0660921     0.239055     0.259149  -0.00219001  0.000936075     0.218806    -0.127858      0.10303    -0.089294    -0.115439     0.290008     0.214755     0.156454    0.0668559     0.055792     0.196977       0.1184    0.0414565     -0.24979     0.120197    0.0870715    -0.258535     0.103124    0.0364034     0.144221    0.0410637    0.0178835    0.0252499   -0.0194278     0.175835     0.119721     0.461464   -0.0999457   -0.0972058    -0.110432    -0.273118    -0.196779    -0.142451     0.245817   -0.0296766    0.0327615    -0.140951     0.178593    -0.173471     0.168988     0.130346     0.156416    0.0323101     0.236483     0.115723     0.108059     0.387602    0.0929244    -0.130971     0.164563    0.0873219   -0.0447266     0.129775    0.0624056   -0.0701865    0.0647648  -0.00376381     -0.05258     0.233935     0.327642    -0.072038     0.180783     0.320706    -0.107568      0.21575    -0.052815     0.242899   -0.0359181     0.265402    -0.111094   -0.0821932     0.201206   -0.0251886    0.0390971    -0.182584
   -0.158149   -0.0136433     0.198203     0.136548     0.325977    0.0489723     0.327368    0.0712763     0.461659     0.129519    0.0167079     0.200217     0.110491     0.196917     0.109284     0.182131     0.315183    0.0880271     0.279618 -0.000370601     0.131049    -0.164229     0.224456     0.374042   -0.0365417     0.506559      0.14267     -0.11032    0.0829435     0.198829     0.156806    -0.198919    0.0127593     0.299001     0.018997    -0.150601    -0.177581     0.352487    0.0295337     0.345708     0.106999    0.0793282    -0.129917    0.0536978     0.132281   -0.0903284     0.342581  -0.00186964   -0.0623179   -0.0795168     0.277346    -0.101766      0.42141    -0.118746      0.55329     0.294818     0.168429      0.26937    0.0364825     0.308612    0.0804114     0.263834     0.244889     0.104177     0.117491     0.244522     0.377604      0.02901       0.1757     0.334509   -0.0254514     0.327015     0.310643     0.328657    0.0615576    0.0425491     0.226071     0.238894    0.0764458     0.265389     0.199045   0.00647208     0.123713    0.0890034    -0.182318      0.24596    0.0555287    -0.015335    -0.153209     0.406633     0.156906     0.273265     0.126508     0.194795      0.10727    0.0878482     0.127582      0.10784    -0.136115     0.186835     0.387961    -0.015424     0.253001  -0.00243903     0.233717     0.371496  0.000993144     0.241688    -0.111358    0.0319927     0.281463     0.218759     0.390011     0.148348     0.318756    -0.149791  -0.00681547     0.322248    0.0578624   -0.0911153     0.259862    0.0853505     0.120872     0.113816     0.138824     0.153516     0.185107   -0.0341127     0.057442     0.283323   -0.0376937      0.40508     0.277151     0.116617     0.419439    0.0105711    -0.034209   -0.0761663     0.409994     0.115053     0.467608    0.0540835  -0.00339074     0.113838     0.396277      0.12555    -0.065833     0.114302     0.221225     0.234363     0.151288    -0.127712    0.0431684    0.0853259     0.446232    -0.121003     0.222031    -0.202879     0.273663    0.0808302   -0.0796268     0.132705     0.323826     0.220147     0.295807    0.0534422     0.203841      0.22165     0.156453      0.27815     0.168151    -0.102537    0.0907081    -0.129743   0.00133005     0.241686    0.0814614     0.314399     0.186293    0.0355355     0.102132    0.0617079   -0.0635663     -0.27476     0.253954     0.208289     0.305193     0.104656     0.117719     0.218471    0.0695203    -0.154741     0.101011     0.264027     0.131725     0.406619     0.387317    -0.118111     0.318257    -0.150839     0.311521     0.021822     0.110312   -0.0473906     0.036338     0.187318     0.127702     0.322322    0.0364558     0.232661      0.15306     0.205417   -0.0218883       0.4561    -0.324803     0.306968     0.211186      0.34028    0.0272186     0.114875    -0.144601     0.112528     -0.01728     0.355682     0.480246     0.291416    0.0942207     0.320598     0.328175     0.419019     0.146565     0.281984    0.0687069     0.104341    -0.109876     0.257415   -0.0474305    0.0703172     0.241408    -0.274574     0.290036   -0.0036398  -0.00210007     0.194958     0.354974     0.138683   -0.0436468     0.281354      0.26225    -0.124615    0.0308006   -0.0410164     0.040908     0.314414   -0.0889858   -0.0200292     0.162557    -0.016582     0.259289     0.250992     0.141915     0.150534     0.105234     0.055044    -0.207303     0.157568    -0.106197    -0.101624    -0.136049     0.183458    -0.216098     0.196296    0.0215271      0.12821   -0.0766699     0.051861     0.410369  -0.00108919     0.100598    0.0610252       0.3269     0.269654     0.221401    0.0741804    -0.132392     0.235335     0.289004     0.232536     0.335082    -0.136787   -0.0619269     0.046501   0.00654972    -0.215041     0.164725 -9.14144e-05     0.175092    -0.064849   0.00406121   -0.0282679    -0.135615      0.10932     0.493212    0.0397359    -0.130697     0.149149   -0.0565881     0.431167     0.263868     0.107242    0.0686401    -0.113769   -0.0385857   -0.0509613     0.151735    0.0838317     0.140169    -0.194628    -0.300734   0.00445724     0.156161   -0.0247902     0.128505    0.0364446    -0.101135     0.162018     0.375555    -0.142127     0.137564     0.174923   0.00456421    -0.118286     0.173154    0.0666137     0.025573     0.165796      0.22256    -0.059948     0.246193    -0.166517    -0.249388     0.329674      0.42374      0.16942    0.0298342     0.342724    -0.195753    -0.251734    -0.326276     0.249215   0.00461624     0.185033   -0.0318918   -0.0181587     0.120342     -0.11116 -0.000253159     0.143025     0.252693    0.0938718    0.0603586     0.190186    0.0242386   -0.0694184     0.119576     0.186119    0.0511253     0.143363    0.0405393    0.0676013    0.0535291  0.000511315   -0.0968393     0.258591  -0.00750775   -0.0411655     0.143082    -0.189005    -0.201835   -0.0746814    0.0203496   -0.0923324     0.251749     0.170908   -0.0992407   -0.0481278     0.279232    -0.191428    0.0389941    -0.109906   -0.0908815      0.34104    0.0251378     0.287801     0.288842     0.117572     -0.10564    -0.182948    0.0336751    0.0782844    -0.106095  -0.00602405    -0.267923     -0.21782     0.222404    -0.084171    -0.260088   0.00181988    -0.150533      0.24086     0.320649   -0.0741001    -0.142766    -0.195476   -0.0784186   -0.0437503     0.342411     0.421316    0.0307498    0.0795889     0.161757     0.321916   -0.0459185   0.00958875     0.143248   -0.0222701     0.071009   -0.0460533     0.141135 -0.000244621    -0.144315    -0.378423    -0.133785     0.112723     0.096996     -0.24962    0.0573214  -0.00661317    -0.391105   -0.0296861    0.0916699     0.236642   -0.0677257     0.222952     0.186768     0.400814     0.411632     0.233867      0.13711   -0.0996648   -0.0369102     0.330559  4.70185e-05     0.268713    0.0849641     0.231317    0.0971754     0.160725     0.200324    -0.337567   -0.0746381    -0.102715    -0.224163    -0.201951   -0.0855079    -0.100797    -0.146182    -0.114811    0.0796733     0.237286     0.146702   -0.0489322    -0.127461       0.5466     0.131735     0.131764     0.226237     0.107344     0.178535    -0.154248     0.350308  0.000572999   -0.0603101     0.109376    -0.157966     0.126146    -0.202919     0.180582   -0.0545201   -0.0918358    -0.177407    0.0350966   -0.0884335    0.0421125     0.308545    0.0810994     0.043842     0.130094    0.0415075    0.0903779      0.11496   -0.0568408     0.378269     0.308281    -0.167894    0.0197325     0.550682    0.0544101    0.0428813     0.529154     0.119132    0.0865309    -0.100295     0.413843     0.158835     0.208464    -0.395905    -0.232454     0.308784   0.00648625     0.290275   -0.0286784  -0.00543426    -0.294351    0.0258107   -0.0417145     0.127177     0.284341    0.0773613     0.060246     0.214859     0.450973     0.224978   -0.0769578    -0.116742     0.179179     0.280231      0.21121    0.0499245    0.0337552     0.123684    0.0787853      0.27847     0.181616     0.144376   -0.0539614     0.187751  -0.00494496    -0.176741      0.42316    -0.163826     0.137142  -0.00218534     0.314989     0.417688    0.0986942     0.132604   -0.0250414   -0.0157781     0.195869    0.0996341   -0.0213612     0.291039    -0.123126    -0.113469   -0.0659689      0.17886  -0.00871653    -0.152728    -0.191686     0.148268      0.37665   -0.0295847    0.0364156    -0.214474    -0.139285    -0.107629    -0.177713    -0.120884     0.113917     0.383307   0.00382499     0.225442     0.140402     0.186068     0.105643     0.100951     0.179148    0.0883581     0.299066      0.23343      0.04542     0.286636     0.214305     0.154544     0.294734    0.0713615     0.277424    -0.186402    0.0745727    0.0269422     0.152571    -0.106451    0.0497159    0.0461193    -0.288344    0.0135222      0.14342     0.103778     0.270547     0.270753    -0.134515     0.260723     0.148422     0.170328     0.311027     0.295439   0.00369827     0.127878   -0.0434702     0.242659     0.024631     0.488793    0.0858334      0.19973   -0.0193728   -0.0871105   -0.0574141    0.0656002     -0.12464     0.128947    0.0717462    -0.265354    0.0245587    -0.160929     0.242971   -0.0670841    0.0370713   -0.0180792     0.192904   -0.0916025    -0.199537     0.222265    0.0193808     0.254046     0.124796     0.170244      0.24767     0.457699     0.030443    -0.143289     0.302412     0.100976    -0.263866    0.0710453     0.122023     0.128412     0.195077     0.141469    -0.123987    -0.357218      0.33046    0.0230686   -0.0997024   -0.0823317     0.101419     0.227682     0.167278    -0.118638     -0.10636    -0.101901     0.417238    -0.143478     0.223643    -0.041107    0.0796768     0.407728    0.0578969    0.0506373    0.0329177    0.0289925   -0.0640378     0.142902   -0.0891464    0.0340707     0.248096    -0.118038     0.207914   -0.0059781     0.294646    -0.072509     0.136727      0.23072     0.114437    0.0430103     0.249466    0.0645401    0.0557806     0.171338     0.275522    0.0362279   -0.0728796     0.177863     -0.22456     0.156411     0.172326    0.0276456     0.161582      0.11979   -0.0622776   -0.0539923    0.0388017     0.201031     0.111717     0.166845      0.40926     0.145526    -0.145668    -0.116487    0.0656213     0.036273    -0.135114    0.0777704     0.260653    -0.221988   -0.0899621     0.324886   -0.0527355      0.37976     0.274189    -0.316011    0.0312541     0.170695    0.0782837   0.00380139     0.111632     0.250975     0.139906    0.0989087    -0.292078     0.214835     0.121093     0.098178     0.238237     0.015552    0.0568536    0.0892354    0.0939317     0.059692     0.197866     0.213243     0.105534    0.0131306    0.0687225     0.257015    -0.117979     0.562906     0.220802     0.252466    0.0686485    0.0627434    0.0806264     0.376379    0.0963044     0.162658   -0.0525891   0.00828978     0.207639    -0.218878     0.434124    0.0950028    -0.035406     0.193058    0.0381242    0.0177069     0.302747    -0.124902   -0.0847626    0.0684002     0.361444    -0.208327      0.43741     0.221339     0.100359
   -0.131434   -0.0865767    0.0830095    -0.154601   -0.0932461   -0.0391169     0.296117    -0.177249   -0.0228044    0.0499387     0.025353   -0.0683948     0.230035    -0.207988   -0.0553618   -0.0467814      -0.1648     0.020402    -0.251082   -0.0126146    0.0816043    -0.311543   -0.0175083    -0.261482    0.0592909      0.28099     -0.26698     0.401212   -0.0854413   -0.0716719    -0.337483     0.325506  -0.00433877     0.197908    -0.168148    0.0864105     0.230219   -0.0481682    -0.286811    -0.104207    0.0933648   -0.0923464   0.00265157     0.239399  -0.00376273   -0.0676502    0.0816817     0.186083    0.0242346     0.271985     0.098013    0.0952123    -0.147295     0.113103    0.0235131     0.218763     0.341148      0.18789     0.376637    0.0525039  -0.00153842     0.126841     0.380764     0.116052   -0.0568144  -0.00128281     0.158665   -0.0263974    -0.375219     0.160666    0.0848449   0.00508481     0.160936  -0.00384825      0.11205    0.0877834    -0.096172     0.313672      0.24938   -0.0356373     0.096623    -0.340929     0.129244    0.0969954    -0.336486    0.0698629     0.153136     0.146759     0.275992    0.0655799     0.328241     0.255925     0.147054     0.199286    0.0666179    -0.348119    -0.227116      0.19626    0.0874209    -0.126432     0.208906   -0.0987516     0.100261   -0.0340664   0.00528432     -0.34734  -0.00373261   -0.0297585    0.0745682   -0.0831092    0.0908245     0.230247     0.136026      0.16017    -0.115125     0.261047   -0.0534097    0.0612136    0.0554258      0.23505     0.217621     0.204635     0.244161     0.217798     0.248704      0.18313   -0.0616271     0.153277     0.252468     0.350871   0.00338714     0.186109     0.144126    -0.130348    -0.161398    -0.210073   -0.0195453     -0.20307   0.00979855   -0.0858853     0.297807     0.197064     0.227907   -0.0709082   -0.0711329    0.0759207     0.119957      0.11412    0.0994107     0.154215   -0.0414632   -0.0967402    -0.154726     0.316494    -0.203192     0.263561     -0.20614     0.122574    -0.148151    -0.153004    0.0609586     0.115979   -0.0727235    0.0205691    0.0119667    0.0267417   -0.0195969     0.144798    0.0538594     0.080455    0.0929738   -0.0314829    -0.117155    -0.208632    0.0563668     0.139353     0.152793    -0.108064   -0.0942992    0.0671524    -0.176935   -0.0939289    -0.205202   -0.0702653    -0.246794   -0.0505155    0.0660404   -0.0409388     0.425975     0.287515     0.261978     0.288618     0.232726    -0.067721     0.136465    -0.137054     0.238211    0.0628289     0.313042     0.115995    -0.174597     0.165169     0.355491   -0.0464508     -0.13642     0.170257     0.315945    0.0170369    0.0167789    -0.259919    -0.143908   -0.0863776   -0.0598181     0.137347     0.366636    0.0476309    -0.169739   0.00744447    0.0617234   0.00190981    -0.166551     0.274185     0.116353    0.0870079    -0.103367     0.145119   -0.0409536    -0.143027     0.193116     0.287862       0.1155    0.0215183     0.144173    0.0857955      0.17086     0.134602   -0.0831243     -0.32371    -0.153836   0.00719802    -0.251578     0.171564    -0.132093     0.296108     0.184305     0.126469    0.0924197    0.0128029     0.221889    -0.169258     0.174537   -0.0615211    -0.213948    0.0194494   -0.0350855     0.210069    -0.157756    -0.195932   -0.0958303      0.35816      0.37863    0.0743367     0.199507     -0.10813    0.0463948     -0.17002   -0.0551402     0.337339     0.209052    -0.187305   -0.0363894     0.297287     0.105636   -0.0133854     0.210279    -0.142558   -0.0939138     0.123497    -0.068546    0.0186739    -0.245028    0.0771228    -0.114697   -0.0446348     0.181458   -0.0137589    0.0295496    -0.254311     0.239209     0.173386    0.0938983    -0.174547     0.102895    0.0828114  -0.00694914    0.0560668    -0.165952    -0.201148    -0.134861   -0.0965538  -0.00368747   -0.0219666  -0.00215171     0.101122    -0.301504   -0.0717638     0.120405     0.032521    0.0432818     0.111106   -0.0563382     0.356912   -0.0668494     0.361569    -0.140508    -0.114411    0.0834659     0.102674    0.0564415   -0.0754362   -0.0367397   -0.0436869   -0.0840367    -0.078989     -0.45427    -0.301347    -0.153486    0.0982961     0.146188    0.0146048   -0.0620556     -0.29329   -0.0248135   -0.0371918       0.2178    0.0832222     0.119112    0.0816885    -0.247241   -0.0318546    -0.154337    0.0809972   -0.0139838  -0.00102023    0.0408095     0.341967      0.19371    0.0257038   -0.0963344      0.10537   -0.0951445   -0.0829429    0.0275837     0.134282 -0.000247152     0.165287     0.141392     0.150084   -0.0651574    0.0221125  -0.00835956    -0.160689    -0.143311     0.167256     0.259586  -0.00835378    -0.171075     0.396371  -0.00560692     0.178546     0.109638   -0.0620532    0.0791751    -0.284134   -0.0764122    -0.012222     0.136877    0.0463566     0.270723    -0.164539  -0.00165507    -0.210135  -0.00921754     0.149171     -0.10959    -0.254443     0.180202     0.150011   -0.0789758     0.217577    -0.043747    0.0815322    0.0398377   -0.0456448     0.103186    0.0326349     0.147952     -0.28181     0.213013     0.392895    -0.248403     0.154292   -0.0769136    0.0280265     0.220494     0.141693    -0.159588    -0.045938    -0.153369     0.177422     0.080064   -0.0854101     0.108082     0.135529    0.0286989   -0.0697292   -0.0171816     0.132376    -0.286578     -0.13382     0.201616  -0.00375256     0.297402    0.0743319   -0.0106993    -0.380593     0.303036     0.143672     -0.23701    0.0889256     0.165717    0.0523499    -0.091371   -0.0605763     0.203277     0.211202     0.184513    0.0800578   -0.0159214    -0.219137    0.0987583    0.0862167   -0.0100338     0.177258      0.13495      0.33999   -0.0715844     0.156872     0.292385    0.0161814    -0.148535    -0.224903    0.0440758     0.228826     0.263335   -0.0777081     0.114678    0.0427589    -0.108447     0.177356     0.240703     0.133278     0.218827   -0.0746504   0.00708953    0.0017675     0.149275     0.224972    -0.260167    0.0664429   -0.0566864    -0.160356    -0.265277     0.202989     0.104018    -0.221698      0.25138     0.297916   -0.0328447    0.0707811    -0.132071     0.178408    0.0458093   -0.0335149    -0.186723     0.116755    -0.214556     0.173803   -0.0194164      0.26277    -0.109516    -0.169683     0.142599    -0.102723   -0.0761659    0.0306055     0.155411   0.00625707     -0.02523     0.180018    -0.145635    -0.148389     0.299041    -0.146222     0.092004    -0.149216    0.0226589   -0.0031652     0.123823     0.287476   -0.0632491     0.327249     0.104049     0.106395     0.293637       0.1878   -0.0984743    0.0268416    0.0322231   -0.0419872   -0.0227161     0.336378     0.194622    -0.219992  -0.00135274   -0.0336555    0.0842441     0.173513    -0.116305    0.0882396   -0.0976412     0.058032    0.0834952     0.119658     0.139464     0.261048   -0.0269765    -0.155442      0.27764    -0.070485     0.036286    -0.276985    0.0508799    -0.046811     0.135273  -0.00819253    0.0453802     0.290353     0.170712     0.159505     0.100055    -0.136917     0.200291      0.12944   -0.0097475    0.0323616     0.247931    -0.271716    0.0875266     0.189738    -0.234382     0.178512    0.0602697     0.239752    -0.193237   -0.0279918    -0.164028     0.198784     0.160448    0.0806248     0.370324     0.242397      0.15937     -0.04509   -0.0460384     0.194874    -0.206189     0.113694    0.0851602   -0.0593569     0.152063   -0.0709746    -0.131983    -0.111629   -0.0670386    0.0391008    0.0881054    -0.187251   -0.0832866    -0.077374   -0.0234468     0.232284     0.249273    -0.274074    0.0498916    0.0651343      0.26469   -0.0223954    -0.155444   -0.0988938    -0.249457    0.0207672     0.306892   -0.0476392     0.151994     0.214705     0.375592     0.196831   -0.0817474   -0.0448642    -0.137252     0.213572    -0.091355    0.0187389      0.16747     0.312753   -0.0115235    0.0396509    -0.054687    0.0714445     0.118146    -0.180335     0.169088     0.387047   -0.0762681     0.202025     0.224434    -0.184731     0.106107     0.108531    -0.147928    -0.216062    0.0950041    0.0384121    0.0589428     0.135004    -0.204284   -0.0175617     0.259812    -0.100745     0.199561     0.144798     0.130961   -0.0515875   -0.0380753   -0.0120509    0.0993929    0.0937917     0.160464    -0.155352     0.128668   -0.0121933   -0.0538787   -0.0464868   -0.0665232    0.0714935     0.194693    -0.199733    0.0863674     0.092774   -0.0431576    -0.268131    0.0984512    0.0298336     0.270497  -0.00222336      0.14135   -0.0974037     0.156486   -0.0312328   -0.0589358    -0.257421     0.120143   -0.0113022  -0.00278838     0.198122    0.0987915    0.0178395   -0.0315733   -0.0326142    -0.175785   0.00196912    -0.295828    -0.105099     0.126544    0.0231443     0.127236    -0.141139    -0.226591  -0.00478558    0.0961098   -0.0827602   0.00176034    -0.114064   -0.0688092    -0.188952    0.0762655   -0.0498103    -0.109403   -0.0817328    0.0980494  -0.00424325     -0.11187     0.204375   -0.0316543     0.233594     0.215829   -0.0529614  -0.00525226     0.141798    0.0789614    0.0789563   -0.0564988     0.141033     0.216718   -0.0416015    -0.112517     0.039078   -0.0228277     0.131884    -0.165412    -0.204691   -0.0501952    -0.157357     0.145265    -0.109872     0.235142     0.224137    -0.159921    -0.156795    0.0224723    -0.163554    0.0601272    -0.184592     0.048862     0.183131     0.200635    0.0299755       0.1947     0.094035   -0.0568699        0.214    0.0718777    -0.113503   -0.0266436   -0.0908512   -0.0398835    -0.045193     0.122317     0.147501    -0.111414   -0.0574144    -0.097747     0.235028    -0.127928    0.0131305     0.312359     0.231162    0.0829242     0.324652    0.0778871    0.0304823    0.0982303    -0.199836     0.094471   -0.0444064     0.157367   -0.0347601     -0.20756     0.127471     0.119432     0.201453     0.079645     0.321961     0.157119     0.264854     0.237817     0.285902  -0.00468086     0.012142     0.199291        0.097   -0.0672253   -0.0450993
    0.156884     0.401947     0.303789     0.125386   -0.0230809    0.0598226  -0.00246802    -0.197576     0.222912     0.150688     0.270716    -0.347838     0.387303   -0.0781752    0.0691053     0.244205    0.0284083    0.0605155     -0.10777    -0.183801    -0.313778    -0.271607   -0.0978786     0.106246  -0.00141429     0.087665    0.0347955  -0.00666856     0.152117     0.240088    0.0849152   -0.0489673     0.241739    0.0972126    -0.026769     0.206419     0.188627   -0.0807139   -0.0439216    0.0895429     0.153741    0.0554458    0.0131992      -0.3145    0.0097077     0.165364     0.148351    -0.074688    -0.336718     0.111982     0.094382     0.174143   -0.0885333    0.0938306    0.0155022   -0.0824585     0.167557    -0.310776     0.297673   -0.0696062     0.307296     0.075085      0.32318    0.0496043    -0.217278     0.073946    0.0745207   -0.0739809    -0.110041    -0.384927      0.10702   -0.0288998      0.18031    -0.080681    0.0481814    0.0803734   -0.0411543     0.234634     0.125586    -0.091791    -0.173983     0.166339     0.042413    0.0319084     0.179313      0.01661   -0.0777331    -0.241339     0.178779   -0.0145334     0.165689    -0.133744    -0.163064   -0.0931119   -0.0391216     -0.29131     0.169284    -0.244039     0.025429    0.0654445     0.278851    -0.156177      0.11829    -0.107216   -0.0286623     0.188594    0.0158883   -0.0247578   -0.0758556  -0.00527159   -0.0165747     0.265694    0.0128275     0.144067   -0.0737615     0.230074     0.198841    -0.036621     0.193507    0.0755836    -0.105984    0.0046068    -0.310033   -0.0185961      0.01892     0.261053   -0.0623902  -0.00124593     0.286034     0.137796      0.26097   -0.0748134    0.0524858     0.192329   -0.0718379     0.184352   -0.0304843     0.367251     -0.14304    0.0233644     0.069565    -0.119366   -0.0181632    0.0599637    -0.101953    0.0697475    0.0723604     0.239462    0.0444329    -0.015355     0.156607   -0.0258927     0.213972    -0.169131     0.118812     0.247752     0.255141    -0.294008    0.0222019    -0.148589     0.207218   -0.0135487    0.0876252     0.339055    0.0862275      0.11543   -0.0534652      0.10824    0.0446367    0.0370574     0.164023     0.248233     -0.15578     0.209363    -0.312916     0.279103     0.235517    0.0855173      0.14385    -0.223396      0.33127    -0.100696    -0.215403  -0.00845527     0.179651   -0.0395657    0.0721982    -0.189765    -0.380777    0.0153098     0.208945     0.182129   -0.0980591   -0.0381854    0.0261028   -0.0661711     0.166137     0.200116   -0.0416999   -0.0166091     0.146236   -0.0689053  0.000739771    0.0884346   -0.0478722      0.28988     0.103742   -0.0716073     0.152822     -0.15596     0.124028    -0.124744    0.0977869     0.172999     0.175936     -0.28751     -0.13155   -0.0294006     0.111259     0.163604    -0.143875   -0.0636133     0.262027     0.241982    0.0905008    -0.303147     0.127791     0.226819      0.14225     0.132341  -0.00529076  -0.00855138    -0.312027   -0.0339607   -0.0741786     -0.18676    -0.115698    -0.137104    -0.246689    0.0998964    0.0154897   0.00363703   -0.0837429     0.301052   -0.0989718     0.148923    -0.109754    0.0916226     0.116812     0.112419   -0.0323214    -0.174546     0.369965     0.269605    0.0455235     0.348714    -0.126094    -0.128335     0.168524    -0.206339    0.0901209    -0.073386   -0.0775556    -0.195984    0.0548993 -8.25168e-05    0.0427283    0.0178907     0.121736    -0.044688    -0.307657     0.160852   -0.0111494    0.0502633     0.205882   -0.0235218   -0.0395601     0.107273    -0.271939    -0.146005   -0.0200616    0.0227404     0.202245     0.100382   -0.0994204    -0.225153      -0.1166    -0.108784   -0.0941326     0.132495    0.0839169  -0.00949047    -0.107089    0.0217034  -0.00294696   -0.0342924     0.427332    -0.146549    -0.109019    0.0774124   -0.0189043    -0.109747     0.251124    -0.110022     0.229264     0.189123     0.100225     0.166666     0.210299    -0.238589     0.271411     0.118222  -0.00501609     0.201522    -0.269423    -0.140014    0.0867638    -0.192769     0.335016   -0.0861206     -0.11725     0.225468    -0.212483   0.00948268    -0.148158     0.136904    0.0299976   -0.0208763    0.0946315    -0.107669   -0.0176771    0.0684663     0.336325   -0.0100347     0.160768    -0.113131    -0.255012    0.0436348    0.0372852   0.00980211    -0.302983     0.303867    -0.178952   -0.0644253    0.0224273    -0.088379   -0.0678201     0.047557    0.0299148    0.0352535    -0.200288    -0.282402    0.0773931    0.0508298      0.19675    0.0713871    0.0196648    0.0106813    -0.191585   -0.0672764   -0.0563117     0.108506    0.0713318   -0.0705488     0.351088    -0.103393     0.215671     0.192962     0.163924    -0.194425     0.152593     0.143409   -0.0612402    -0.183024   -0.0932398    -0.183842    -0.214385     0.118234     -0.25554     0.202855     0.175644     0.109481    -0.319428    -0.101424    0.0196315   -0.0117949      0.33502   -0.0659947    -0.348249   -0.0489207    0.0841732    -0.191066     0.382515     0.157372     0.244197    -0.150471    -0.186053    -0.212547     0.297032   -0.0368268    -0.123416     0.194827     0.176042      0.20552     0.143687   -0.0479271     0.398476     0.197258    0.0576721     0.114294   -0.0640389   -0.0685165   -0.0611944     0.116252    0.0399365    -0.188094   -0.0610146     0.115591    -0.220554    0.0520216    0.0547115    -0.108172     0.210407    0.0151379    0.0651336     0.124147   -0.0308278    -0.225897     0.107464     0.186125     0.255264    -0.166223    -0.106876     -0.15019    -0.187289    0.0437112    -0.253399  0.000233133     0.155326    0.0606632   -0.0921742    -0.111692    0.0452364     -0.02404     0.133504   -0.0455002     0.107271    0.0296808   -0.0479634     0.159368    -0.216576    0.0885191    -0.197518     0.299137    0.0111281  -0.00184375   -0.0447747     0.241945     0.253182     0.043682     0.232271   -0.0442314    0.0206801    0.0778714    -0.121284   -0.0646776    -0.179022    -0.207685   -0.0127429   -0.0622829     0.108922   -0.0259979    0.0645846    0.0214176  -0.00853156    0.0601065     0.101283     0.250911    0.0840608   -0.0297736    -0.137009   -0.0886492    -0.101978  -0.00944235   -0.0893914   -0.0557055    -0.218301    0.0758917    -0.114607    0.0931756     -0.03073     0.048353     0.232184    0.0689495    0.0231745   -0.0276404    -0.108755    -0.276999   -0.0135741   -0.0366423    0.0077405    -0.152991     0.179618   -0.0464414    -0.192762   -0.0488083   0.00790267   -0.0128388     0.149893    -0.359222    -0.226222     0.148643       0.2806    -0.233516   -0.0278603    -0.284915    -0.187514    -0.305209   -0.0214371    0.0524359    -0.222339     0.107221    0.0782972   -0.0110837    -0.078428     0.412337   -0.0455778   -0.0903792   -0.0516673     0.037987     0.213816      0.12018    -0.198675   -0.0780753    -0.133355   -0.0465149   0.00615912     0.157482    -0.126204     0.131792     0.208621    0.0504337   -0.0496391    -0.184425    0.0939637   -0.0421369    -0.106313  -0.00257387    -0.242804     0.240485    -0.158298      0.10822    -0.124092    -0.204383   -0.0291196   -0.0503842     0.133888     0.380727    0.0641592    0.0368597    -0.103122    0.0871428     0.347067    -0.227348   -0.0879368     -0.21679    -0.302428   -0.0741323     0.323483    -0.275328    0.0621776   0.00216187       0.1946    -0.194161    0.0779169    0.0512105     0.428594   -0.0807297    -0.441748     -0.23638    -0.350131   0.00283533     0.360584    0.0222061   -0.0786966   -0.0264868     0.227138     0.128127    -0.300698     0.243353     0.127059   -0.0268879    -0.114134   -0.0174399    -0.058302   0.00694409     0.299933    0.0709681    -0.174401      0.18014    -0.106764   -0.0409065    0.0659147     0.107756   -0.0431049    0.0793355    0.0590376      0.13407    0.0485794    0.0843717     0.144886     0.169334    -0.219078   -0.0637191   -0.0857318    -0.395174    -0.178373     0.243458     0.306873    0.0110076   -0.0712596   -0.0697037      0.21075    -0.117113     0.202524   0.00531489   -0.0358012   -0.0459535    0.0472912  -0.00098084   -0.0719458  -0.00619405     0.132475   -0.0270633     0.102194    -0.125576    -0.263669     0.182878    -0.342261     0.227706    -0.190967   -0.0215018     0.249817     0.132376    -0.101948   -0.0426072   -0.0138466    -0.191705    -0.064969    0.0272531     0.140047    0.0994304    -0.126076   -0.0883704    -0.141206    0.0452062    0.0491776     0.247611    0.0438286    0.0444889     -0.10385     0.284064    0.0452254    -0.161786     0.190963    0.0621743     0.386253    -0.283958    -0.196556     0.419025   -0.0114298    0.0184871    0.0751336     0.208006     0.299187    -0.120822    -0.150236     0.188548      0.33337    0.0356203    -0.187946    -0.153971    -0.195211     0.193096    -0.067272   0.00408232    -0.266746    -0.170843    -0.146294    0.0984364     0.191353    -0.107606    0.0739222    0.0420677     0.405726    -0.247705    0.0439853      0.05124    0.0908228     0.147623    0.0796572     0.180532   -0.0328366  -0.00937963    -0.174213   -0.0687409   -0.0292879    -0.255362     0.165544    -0.119381     0.192348      0.11115     0.140298     0.119478    0.0817662     0.114869     0.085083     0.330134     0.049855    0.0755368    0.0941544   -0.0535752     0.213846    -0.122872   -0.0593355    -0.128676    -0.142657   -0.0937904    0.0459511   -0.0845736     0.188019   -0.0715256   -0.0214158    0.0232952    0.0665868    0.0880593    0.0236269   -0.0979968   -0.0238096     0.266268     0.107276     0.246399    0.0817055    0.0671348    0.0197599   -0.0393734    -0.338338    0.0701584     0.155001    -0.109081    0.0582469     0.287128  -0.00412984   -0.0527741    0.0762543    -0.151496   -0.0153847   -0.0277195     0.204654     0.259878    -0.121516   -0.0301731    0.0855626    -0.216983   0.00380615    0.0744765    -0.203271     0.254123  0.000202189   0.00438797    0.0532649     0.322182    -0.115645    0.0184197      0.15035     0.194329   -0.0265334    -0.176833   -0.0905835   -0.0995019   -0.0263155     0.108998     0.307974    -0.154474
     0.40668    -0.150511     0.107416    0.0147614     0.072784    -0.235548     0.179806 -0.000302361     0.139055   -0.0660023   -0.0815956     0.219336    0.0426098    -0.279753      0.11023     0.343114    -0.215057    -0.256138    -0.305221      0.18584  -0.00253642     0.096627   -0.0520562  -0.00143957     0.223167    -0.287715      0.13488   -0.0853444   -0.0465933     0.144054      0.16375    -0.333175   -0.0957573     0.181747   0.00822014    0.0912048    0.0223581     0.140423     0.187136    0.0246768     0.261385     0.296325   -0.0530751    -0.144562     0.181642    -0.178654     0.216181    -0.068888    0.0272918     0.181167   -0.0165787     0.149992    0.0141223     0.336766     0.204621     0.112889     0.126074     0.118805     0.324486     0.121652    0.0948913   -0.0267743    0.0525897     0.166346     0.110852    -0.151919     0.262806     -0.12527    0.0768718     0.177683    0.0913782     0.178198      0.28766    0.0919194   -0.0946585     0.319677   -0.0604446     0.184963    -0.101932    -0.105016     0.145078   -0.0118024    -0.171499     0.277165    0.0428795     0.157411    -0.133099     0.120536    0.0542691   -0.0512723    0.0537511     0.156446    -0.379111   -0.0304425   -0.0043561     0.139013  -0.00300877     0.377784   -0.0536479   -0.0237505    0.0502638     0.183634    -0.123318    0.0958246    0.0629725   0.00605661     0.348623     0.133362      0.20526     0.399047     0.088188     0.170922      0.25125  -0.00717314   -0.0501862    -0.126498     0.118942    0.0922823    -0.097759   -0.0787004     0.160026    -0.143735     0.206729   -0.0960872    -0.142515    -0.194251   -0.0108564   -0.0876158     0.248818     0.344737    -0.177577    0.0248479     0.129045    0.0536722    0.0731231     0.133214    0.0436232     0.160012     0.248877    0.0126379     0.505243     0.140352     0.169948    -0.250056   -0.0946649   -0.0462425     0.168952     0.126653    -0.264509   -0.0790931   -0.0576091   -0.0574546    -0.208937    -0.173015   -0.0361884   -0.0407758     0.155063    -0.194258    -0.429555    0.0526127     0.157119    0.0909392     0.158276     0.156655     0.415546    0.0794266   -0.0238702    -0.153283    -0.131537    -0.182874      0.15488    -0.123248     0.157793    -0.034023    -0.218042     0.165816    -0.125856     0.215897    0.0851454    -0.123933     0.122541    0.0766722  -0.00458949    0.0343461    0.0924595     0.118835    -0.111404    -0.451153     0.354791    -0.125554    -0.322701   0.00445553      0.13778    -0.115553   -0.0258642   -0.0687373     0.263213    0.0153587    -0.202556    0.0992498    0.0753933   -0.0100054    -0.292855     0.118124   -0.0171696     0.193264   -0.0673445   -0.0859729    -0.342047    -0.201541    -0.161468    -0.388735     -0.17676    -0.150721   -0.0255071     0.114321  -0.00654132    -0.124323     -0.13758    -0.221648  -0.00144639     0.216081     -0.12168   0.00901913    0.0393566     0.336721    -0.201015   -0.0671624    -0.291306   -0.0610952     0.092603    -0.302168     0.144104     0.198461    0.0975853   -0.0510716     0.204947    0.0327311    -0.242501   -0.0189334    -0.170517    -0.221735    -0.014762     0.324196    -0.089018     0.215108    0.0506698   -0.0647817     0.241187     0.449686    0.0894249    0.0455474   -0.0067347   -0.0528485    0.0924929    -0.139191     0.354866     0.164199    0.0816606     0.240633     0.425702    -0.100352    -0.231268    -0.301372     -0.17999    -0.171513    -0.286875    0.0687189     0.170906    0.0167395     0.163789     0.132357     0.286735     0.208982     0.224683     0.271508    0.0222003    0.0375966    -0.151993    0.0804728     0.151696     0.183211   -0.0584893    0.0621208    0.0844126    -0.128197     0.106161     0.176443       0.1399     0.100698    0.0673551    0.0105205     0.173245    0.0788842     -0.22753     -0.12332    0.0441759     0.224171     0.352171    0.0518031    0.0945036     0.238438    -0.137654     0.326236     0.065221    -0.133355     0.105743    -0.125799     0.177349   0.00325155     0.161997    -0.249085    0.0688239     0.309165   0.00708725    -0.177078    0.0229613   -0.0094852     0.101448     0.196375   -0.0672882     0.244233     0.204727     0.134754   -0.0460605   0.00184779    0.0757698     -0.15177     -0.24111   -0.0852034     0.184134     0.183117     0.207935     0.256703  -0.00688095    -0.332679  0.000437671    -0.334219     0.285917    -0.131498   -0.0150271     0.142176    0.0995007    0.0285527     0.113417     0.190666     0.156917    -0.122215     -0.13167   -0.0433099    -0.035392   -0.0969968    -0.122117      0.18722    -0.227515    -0.155915   -0.0396287       -0.143    -0.026164     0.198614      0.11896    -0.254058   -0.0524673     0.279017     0.398788   -0.0738531      0.15437   -0.0254428   -0.0186179   -0.0117111    -0.189912     0.265223    0.0890589   -0.0145247   -0.0376876     0.073971    -0.232481     0.145539   -0.0954626    0.0257187    -0.385283    -0.133263      0.10501    -0.200253     0.142145     0.132517    0.0594893     0.110898     0.149027    -0.216042     0.131295    -0.258629   -0.0721679    -0.103162     0.211284     0.116597     0.257191     0.138365     0.213534   0.00885395     0.282077     0.127384     0.338992     0.103574    -0.277811     0.300697     -0.25043    0.0491898    -0.136462     0.178949     0.117815     0.159659    -0.103304   -0.0309193   -0.0672946   0.00216453     0.122864     0.130857     0.149451   -0.0133922     0.196744      0.17294    -0.122509   -0.0208846    -0.140629   -0.0272031    0.0766221  -0.00480938    -0.183601   -0.0397778   -0.0320455    0.0381458    0.0312373   -0.0406927     0.335877    0.0673537     0.175632    0.0528422     0.336695     0.249753     0.197849     0.277248     0.164157    0.0176571    -0.101912    -0.145212     0.346568   -0.0981439     -0.12817     0.107403     0.146419    -0.211964   -0.0562773    0.0288894      0.29202   -0.0262851     0.430447      0.34601    -0.186374    -0.212519   -0.0832247      0.24104     0.139086     0.185964    0.0825324     0.162135    -0.027017   -0.0957454     0.114335  -0.00723144      0.14002     0.142443     0.124698     0.134238   -0.0305228   -0.0610439   -0.0818029    -0.292497     0.288223   -0.0202028     0.202294    -0.140546   -0.0125425    -0.023725    -0.276727    0.0547277    -0.250863      0.14356     0.024467     0.111022    -0.100071     0.323872     0.045635   -0.0782946     0.291727   0.00660542    0.0134413    -0.204669    0.0969924     0.130137     0.143897    -0.178839     0.138591     0.173798   -0.0521048   0.00554299     -0.19568   -0.0384785     0.078818    -0.234691    -0.123902    -0.225507    0.0223764    -0.074881    0.0852894    0.0757142     -0.19837    0.0733926    0.0217464     0.114947   0.00954086    0.0593661     0.134951      0.31293    -0.161931     0.324645     0.142116    -0.170821    0.0941844    -0.106985     0.265287    0.0923657     0.189055     0.449042     -0.12554    -0.176735     0.407143     0.288514   -0.0632538     0.220971   -0.0933836     0.102648     0.248055     0.144349     0.146011     0.419192   -0.0705735    -0.240741     0.171937    -0.306633     0.235211     0.065811    -0.230984   -0.0106299     0.233982     0.249979    0.0736366    0.0570521     0.259039     0.293866      0.15812   -0.0623615     0.204952    -0.221071   -0.0986764     0.169144     0.201896     0.298639    -0.224491    0.0570989     0.101881    -0.148115   -0.0972464     0.251908    -0.165005   -0.0274675   0.00605112    0.0858574   -0.0805283    0.0313499    -0.120777    -0.163879     0.299887    -0.164342    -0.122576     0.182051    -0.135891    0.0856415    -0.163526    0.0578905     0.186704    -0.058842   -0.0570853     0.212949     0.193405    -0.125002     0.128427     -0.24205   -0.0927938     0.205433     0.110825     0.171042    -0.203387   -0.0427336     0.187205    -0.102379    -0.131047     0.298876    0.0747616     0.128343   0.00500134     0.293756      -0.1425     0.305653     0.119428   -0.0242768    0.0835798     0.120487    0.0379465    0.0550664     0.234005   -0.0965094     0.364724   -0.0438695    -0.290413     0.071653    -0.161472     0.136748   -0.0764221     -0.23363     0.182454     0.229907    -0.128327     0.215635   -0.0229505     0.179368    0.0388874      0.34177     0.318272    -0.168499     0.309898   -0.0293554    0.0223164       0.1696    -0.119137    -0.106033   -0.0882307    0.0784833     0.129841    0.0029509      0.16497    0.0470165    -0.225179     0.167588     0.365324  -0.00281319    0.0141566    0.0356985   -0.0196705    0.0108276   -0.0539155     0.304397    0.0449536     0.203416  0.000890561   0.00441902   -0.0420856     0.273436   0.00425661   0.00599091    -0.107737    0.0394054    0.0972686     0.275837    0.0950322     0.292227    0.0010208    -0.266293    0.0916006  -0.00166717    -0.297411     0.249307    -0.202202    -0.271606     0.183383    -0.144383    0.0151883     0.103861    0.0722898     0.062739    0.0956818   -0.0569883     0.218864    -0.178954    0.0774111    0.0970899     0.089161    -0.157492     0.119481    0.0930821     0.125035     0.197901     0.108569   0.00645839    -0.140972     0.350448    0.0789468   -0.0357497     0.334295    0.0826943    -0.115158  -0.00446335  -0.00249011     0.143661    0.0769923     0.100118    0.0823072     0.120813     0.093963    0.0148883    0.0613561   -0.0418591    -0.126043    -0.047053     0.120813     0.338791    0.0181359     0.324751   -0.0402037     0.231284    0.0229273     0.195124    -0.105342    -0.283924    -0.204818   0.00208685   -0.0168655    -0.189029     0.250364     0.202461   -0.0462318    -0.117686    -0.076886     0.119027    -0.265286    -0.069434     0.236421    0.0127908     0.195574   0.00238256    0.0778915    -0.101398   -0.0837312    -0.313668      0.26638     0.128953    0.0899538     0.111768   -0.0521526    0.0963012     0.342621     -0.12655     -0.28979    -0.169064   -0.0567132    0.0488515      0.28436    -0.170375    -0.243293   -0.0900802    -0.249297    -0.163001   -0.0989712   -0.0158128  -0.00632464     -0.26897   -0.0274883   -0.0290003     0.251431   -0.0025157     0.041399     0.257712     -0.22163    0.0752438
   -0.225104    0.0613634     0.365404     0.125012   -0.0230357     0.181886    0.0316718   -0.0523721     0.134032    -0.270916   -0.0138985     0.070482    -0.125397    -0.257383    -0.189408     0.426788    -0.106447    -0.223241     0.181914     -0.22889    -0.266804    0.0389026      0.12103     0.167817     0.130689    0.0654549    -0.041752   -0.0210834   -0.0637442     -0.19612    -0.149899    0.0257771   -0.0302988   -0.0172755   -0.0961688   -0.0966281     0.175817   -0.0295596    -0.275655    -0.316593     0.234886     0.159412     0.419462     0.159766     0.163201   -0.0658607    -0.276258    -0.010738     0.114162    -0.343774    -0.011155   -0.0669127     0.383688     0.055823     -0.23382    0.0294343   -0.0454541     0.117879  -0.00685986   -0.0404619     0.200268   0.00673405   -0.0927979    0.0530728      0.21895   -0.0353373    -0.160297     0.228931     0.127971    0.0518433     0.168808    -0.120088   -0.0232368   -0.0898751  -0.00492894     0.165435    -0.296241    0.0759413    -0.149374     0.110128      0.26079 -0.000483609   -0.0166589   0.00978581     0.371791   -0.0227958    0.0279835     0.154583     0.116985   -0.0331183     0.321191   -0.0238947     0.184494    -0.229447    0.0433978    0.0131453    0.0222474    0.0352667   -0.0735645    0.0399966    -0.100503     0.274288     0.109339    0.0896479     0.280245    0.0886044   -0.0415215    0.0400907     0.108367     -0.20198      0.20532     0.046687     0.125333     0.137194    -0.116299   -0.0344778    0.0499814     0.159832    -0.253781   -0.0799954    -0.040509     0.247418    0.0131959    0.0301874     0.356807     0.127857   0.00664269    0.0947519   -0.0510854    -0.033759     0.120798    -0.100337    -0.134901     0.158039   -0.0810867   -0.0595298    0.0651004    0.0430439    -0.102469     0.100853   -0.0171878   -0.0700954    0.0691391   -0.0468108      0.01943   -0.0222727     0.331429     0.148318    -0.205059     0.160391   -0.0902512   -0.0689056    -0.265067    -0.393414    0.0569468    -0.100082     0.238064     0.215438     0.255292     0.060781    -0.194959     0.233739    0.0534977    -0.221927   -0.0418675   -0.0843874     0.128262    -0.132013   -0.0469418     0.129112    -0.142782     0.178203   -0.0909915     -0.18678     -0.23515    0.0704274    0.0270447   -0.0707499    0.0914222     0.070776     0.178719     0.211125    -0.240137     0.121916     0.238653    -0.258592    0.0826815    0.0857878     0.277574     0.277019    0.0541057     0.287026    -0.223587    0.0624205     0.294751    0.0413803    -0.146098   -0.0277224    -0.220791     0.327511  -0.00797184     0.221909    0.0606451      0.45789     0.302425     0.153377   -0.0610981    -0.126884    0.0495357   -0.0364436     0.175956    0.0866552    -0.127795    0.0132578    0.0894426    -0.087843     0.130577    -0.196253   -0.0291406    0.0212249    -0.122047   0.00215157    0.0990599    -0.205282    -0.170474    -0.133222     0.163996    -0.147838  -0.00965355    0.0326507     0.149212    -0.167243     0.133985   -0.0577233     -0.33543    0.0405977    0.0305009   -0.0658254   -0.0946376    -0.144029    -0.166064   -0.0657407    -0.260311   -0.0906169     0.166179     0.261092   -0.0938822    -0.189927    -0.223156     0.275754    -0.240396     0.210606     0.172621    0.0828113    -0.206854    0.0279779   -0.0920285    0.0316597   -0.0646493    -0.020365    -0.208461     0.209378    -0.141849    -0.155054     0.321895    0.0886196     -0.30342 -0.000557804    -0.144957     0.265515   -0.0773587   -0.0178492     0.160857   -0.0446263    -0.237884    -0.101235    -0.218027    -0.192519   -0.0296589     0.184147   -0.0892792   -0.0768076    0.0983789     0.230708    -0.112112   -0.0956076  -0.00211823     0.298036   -0.0118928    0.0292467    -0.020837    -0.276382    -0.237991    -0.166472   -0.0588473     0.109839    0.0917276    0.0700142    -0.170389    -0.277911     0.132341     0.159332     0.113796    -0.124152    0.0612566    -0.416534    0.0477746     0.113551    -0.237621   -0.0467955     0.121851     0.219642    -0.238126     0.115653     0.102658   -0.0941003     0.217932    -0.061402     0.123607    0.0929791    0.0983166      0.30301    0.0677155    0.0423755     0.249909     0.215915    -0.040962    -0.107848    0.0438516    0.0837231     -0.18132     -0.12272   -0.0429445   -0.0136781   -0.0859893     0.105224    0.0520154    0.0906878    -0.120836    -0.230058   -0.0906798     -0.28083    0.0793821    0.0288573    -0.228079    -0.193031     0.286894    0.0117887     0.160274    0.0202483     0.213563     0.160678   -0.0450816    0.0138678    0.0743613    -0.176888      0.18281    0.0999115     -0.24348     0.050687     0.172004    -0.285935   -0.0473247    -0.205795     0.128051     0.310473    0.0177979    -0.089253    -0.112784    0.0886906     -0.15303   -0.0284276   -0.0959368     0.108082     0.074542    -0.209233   -0.0762675    0.0823083   0.00631006    0.0672192   -0.0255017     0.195058  -0.00320447    -0.132165     0.178926     0.044389   -0.0771786     0.214412    -0.262213     -0.35534     0.347163     0.257265    -0.229398    -0.210012     0.286582    -0.167155     0.221832   -0.0198098     0.162457    0.0465023     0.190861  -0.00242035     0.094091    -0.136804   -0.0624659    -0.238658     0.320107   -0.0420969    0.0894935     0.060956     -0.10387    -0.011553    -0.186677   -0.0437945    0.0898313   -0.0415739    -0.109985    -0.158643   -0.0957055   -0.0529633    -0.297542     0.356361    -0.047239    0.0130338   -0.0668311     0.160322    0.0410506    -0.132909       0.0996     0.233924    0.0567039    -0.107857    -0.263793    0.0171338     0.111456   -0.0102798   0.00610287    -0.235522    -0.126193    -0.194457    -0.272245      0.09897   0.00173997    -0.183647     0.163454   -0.0558295    -0.355891    -0.142332     0.217953     0.179451    -0.165159    -0.109578      0.23422   -0.0112817   -0.0975013     0.199881    -0.113564     0.063953    -0.283249     0.305243    0.0829236    -0.262335   -0.0138075    -0.188698    0.0102497     0.118017      0.13885    0.0387683     0.192161    0.0181054     0.069123   -0.0420056     0.365217    0.0473697    -0.130586     0.397384     0.168732   -0.0363569     0.310555   -0.0846311    0.0201574   -0.0586191     0.157449     0.132109   -0.0282331     0.175875     0.225867     0.101672   -0.0622843     0.266492    0.0456089   -0.0887776    0.0999849     0.294826    -0.092087    -0.100221    0.0405977     0.085718    0.0648675    0.0873791    0.0989483    -0.229057    -0.126562    0.0586562   -0.0344843    -0.114389    0.0230113     0.235464     0.196609    0.0180335    0.0647329      0.27003     0.347035     0.005467   -0.0292607    -0.163109    -0.130411    -0.323743   0.00491826    -0.318274     0.169185    -0.145902     0.224884   -0.0185657     0.128784   -0.0484404   -0.0251689    -0.144558     0.369423    0.0553075     0.245568    0.0857335     0.146937    0.0807754     0.336469   -0.0410071   -0.0950526      0.25818     0.151496    -0.180316     0.071561    -0.327714   0.00201453    -0.139595    -0.142283     0.142735     0.118476      0.24467     0.213656    0.0903911    0.0117383    0.0598856     0.107811     0.181627    -0.315925    -0.134836   -0.0719497    -0.268313    -0.138178    0.0366563    -0.110793   -0.0339176     0.143086    -0.089527    -0.172014    -0.136517     0.320603    -0.180461    -0.194724   -0.0713038     0.160069    0.0486412      0.23465    -0.188221     0.120974     0.133455   -0.0311648     0.178285   -0.0853112     0.164145     0.104556   -0.0816577    0.0850384 -0.000865317     0.388765    0.0605006    -0.143003    0.0730399   -0.0152367     0.325143     0.178487    0.0352575   -0.0295029    -0.155832    -0.170558    -0.115195    -0.134695     0.252891    0.0398291    -0.287242   0.00702632    -0.113193    0.0734537    0.0437491      0.13747     0.212806    0.0502404    0.0345118   -0.0244924    -0.170192   -0.0272551    0.0233089     0.129196     -0.23708     0.287638    0.0100615      0.42142     0.380203   -0.0994728    0.0103457    0.0823905   -0.0304942     0.151821    -0.108084   -0.0933082  -0.00633378     0.230597   -0.0952979    -0.148202     -0.12525     0.180127    0.0792393    0.0967766    0.0489985    0.0683767    0.0103354    0.0862509    -0.332876     0.252514   -0.0265387    0.0256901   -0.0488622   -0.0406527     0.161754    0.0260718     0.269974     0.199494   -0.0374294   -0.0886672     0.159145     0.205326    0.0675633     0.219648    0.0272149    0.0701517      0.18433    -0.229014    -0.228302     0.062241   -0.0652607    0.0942267     0.113423     0.419242     -0.28506    0.0763795   -0.0384802    -0.115851     0.187862     0.296985     0.225697   -0.0393984   -0.0175573     0.155366    0.0152155     0.235244    -0.338896    -0.153166    -0.226402     0.150021  -0.00489136    0.0297633   0.00490024     -0.10364     0.357785     0.146067     0.387364   -0.0537556    -0.138828     0.148754    -0.269472   -0.0856079    0.0331004     0.248739    -0.175563    0.0276124    0.0519071     0.246937    0.0110565    -0.183939     0.127302     0.164052     0.148935    0.0791078     0.255646    -0.185969    -0.328357     0.169449    0.0181748    -0.284173     0.137325    0.0895811     0.124397     0.227781     0.063474   -0.0155097     0.270442    0.0150128   -0.0899923    0.0480097     0.053118   -0.0491889     0.274277    -0.174783    -0.132848    -0.132849    0.0840026     0.173516     0.113441  -0.00695175     0.224997    0.0347678     0.141902   -0.0837712     0.124015     0.150274    -0.171703    0.0669972     0.203314     0.218358     0.345527     0.277332     0.371169     0.095099    0.0964349     0.154655    -0.125931   -0.0267713    0.0417536    -0.171968      0.32612    -0.267764    -0.125382    0.0932998    -0.120761    0.0708544     0.338869    -0.116439     0.187951    -0.165656     0.230374     0.120227     0.097201     0.202968     -0.11101     0.254127     0.092937   0.00321475   0.00876114    0.0234734    0.0667753    -0.188533     0.167461     0.026248     0.224778    -0.125665   -0.0715349   0.00269196     0.374795      0.18606    0.0813986     0.155374    0.0555428      0.42163   -0.0141604
   -0.201216    -0.202138     0.142549    -0.120375     0.301597    0.0830542     0.105255     0.245527      0.14409    -0.154953     0.203809    -0.278554     0.105409   -0.0184425    0.0749084     0.157585    0.0785152    -0.216955    -0.110915     0.174445   -0.0522549    -0.033988   -0.0519567     0.297494     0.283471    -0.103572    0.0700929     0.114038     0.113989   -0.0534429    -0.215734    0.0327388     0.232155     -0.22226     0.027811    0.0539291    -0.129146     0.185668    -0.159796     0.244646  -0.00212616    0.0663103   -0.0644622   -0.0747608     0.131523     0.125256   -0.0677578    -0.136968     0.145409   -0.0246636   -0.0165796     0.194551    -0.218992    0.0132364   -0.0187518     0.166413     0.182554  -0.00417458    -0.163709    0.0873893    0.0493553   -0.0360647   -0.0982049   -0.0393816     0.128222    0.0378005  -0.00614929   -0.0646919     0.038629  -0.00957936     0.115663    0.0193236   -0.0249261   -0.0269168   -0.0286587    0.0617869   -0.0320572   0.00449222     0.112168    0.0435677   -0.0909423    -0.331359    -0.189794    -0.066523     0.147445   0.00164007     0.449152     0.211557    -0.083788    -0.228731    -0.164186   -0.0378719     0.099225    0.0748845   -0.0747607   0.00629622    -0.102463     0.190571     0.048962      0.15307     0.150078   -0.0843384     0.138326     0.101598    0.0533752     0.324628    -0.192473    -0.089916    -0.101717     0.114214     0.269892     0.131341   -0.0626935   -0.0429682    -0.182349    0.0148973    -0.193469     0.171049       0.2382    -0.201457     0.441228     0.124519     0.172501    0.0091566    0.0627884   -0.0814529   -0.0508227    -0.239554     0.194078   0.00592318   -0.0128653   -0.0736114    0.0937184     0.268718   -0.0958989   -0.0840652   -0.0632811     0.371376   -0.0629209    -0.175111   -0.0782196     0.369502     0.235526      0.11084     0.313271     0.130177     0.130313    -0.346977      0.38217   -0.0775555    0.0863104     0.192197    0.0331479     0.132547   -0.0732412    0.0708937    -0.144843     -0.15792    0.0324408    0.0660793   -0.0686398   -0.0432388   -0.0890042   -0.0603125     0.054854    -0.147612  -0.00743272     0.027771    -0.153759     0.116235    0.0374625   -0.0195341     0.315527    0.0754068    -0.280186     0.204484    0.0591204    -0.191514   -0.0197998    -0.044677   -0.0623111   -0.0177568     0.116014     0.085311     0.112618    -0.369475     0.228183   0.00473289    -0.134347    0.0062567    0.0604974   -0.0913402    -0.178271    0.0266825     0.156533     0.408142    -0.298334    -0.204559   -0.0691557    -0.129111     0.194137   -0.0699936     0.182255     0.235766    -0.105241     0.200388  -0.00984282     0.240614   -0.0865166    -0.104163    -0.206139   -0.0709229   -0.0904782    -0.138878      -0.1137     0.273809  -0.00406085   0.00749315       -0.112     0.285604    0.0627652     0.381957    0.0340309    0.0375392     0.161357     -0.24984    0.0187107    -0.303788     0.169009     0.332777    -0.166908  -0.00702896     0.327189     0.123064    0.0204123    0.0216017     0.162962    0.0882166   -0.0588601     0.179333     -0.24617     0.286338     0.066341    0.0728321    0.0439409     0.168158     0.091489   -0.0782184     0.258802    -0.267945    -0.133272     0.267891     0.397366    -0.223026      0.13432    0.0590639   -0.0697505   -0.0128341    0.0457999     0.130428      0.35984     0.107863     0.134039   0.00908643    -0.241613    0.0500822   -0.0703222    -0.251224   -0.0603115    -0.121285   -0.0143967     0.081137    0.0457243    -0.166824      -0.3364     0.108386     0.230894     0.235733     0.305189     0.154874   -0.0523654    -0.177467     0.037189   0.00234597    -0.314486     0.143089    -0.103189   -0.0629115    -0.238372     0.137653    -0.208409   0.00680699     0.124584   0.00239237      0.23646    0.0341286      0.39357   -0.0765783     0.217878   -0.0400721   0.00733261    0.0077019     0.241728     0.205648     0.160396    0.0823881   -0.0484197    -0.119084    -0.234875     0.180973    -0.105723    0.0505961     0.114576    -0.112353    -0.189217    0.0191077     0.177062     0.103275    0.0668552    0.0584813     0.102398   -0.0924166     0.112906    -0.333955    -0.258866   -0.0175771    0.0190625     0.241879    -0.181076    0.0765569     0.302295   -0.0300436    -0.157753   -0.0173269    0.0676527   -0.0700803     0.019209    -0.134265   -0.0103251     0.188396    -0.434779    0.0463739     0.167557    -0.187782     -0.20138  -0.00939039     0.118359     0.106482    -0.222518   -0.0434602    0.0154402     0.300395   -0.0924061    0.0976362    0.0922611   -0.0495919  -0.00805834    0.0689551    0.0581491     0.240384   -0.0913406   -0.0570539    0.0456252    0.0206538   -0.0529082   -0.0800279    0.0270799     0.304069      0.19319    -0.202259    0.0640318     -0.19574      0.11286     0.070597   -0.0450577    0.0622884    -0.161364     0.164048    -0.189126   -0.0896417     0.121116   -0.0771429   0.00430783    0.0451452     0.177091    0.0316288     0.024226     0.265354    -0.298368     0.472816    0.0485602   -0.0145782   -0.0365454     0.474237    -0.154582     0.219185     0.104403      0.33701    -0.171687    -0.187606   0.00856509    -0.249302    -0.232875   -0.0240354   -0.0744075   -0.0794332   -0.0780916    0.0862625    -0.119907    0.0930302   -0.0181152    0.0849384    0.0248839   -0.0172813   -0.0501668     0.296757   -0.0872872     0.206568   -0.0419303   -0.0247018  0.000115348      0.15001     0.183522    0.0753831    -0.096425    0.0129248   -0.0707745    0.0285385   -0.0521078    -0.103768    0.0314841     0.112628    0.0622313     0.143761    0.0839865     -0.14282  -0.00359207     0.043966    -0.132842     0.296412   -0.0044884     0.133901      0.23898     0.127054    0.0789943     0.029059    0.0628519     0.121669   -0.0607552     0.181876     -0.31632   -0.0492133   -0.0553331      0.11371   -0.0512687    0.0771526     0.196796   -0.0477103   -0.0820038   -0.0292614    -0.166223   -0.0930707     0.132465     0.256523    -0.192837     0.115847     0.213981     0.127419   -0.0228676   -0.0358912     0.248623     0.212391    -0.247597     0.254445    0.0504072     0.126542    -0.324367   -0.0376316    -0.139118  -0.00380946    0.0235031    0.0858185    -0.233014     0.130184     0.187743    -0.184384   -0.0787015    -0.367591    -0.153633     0.158823   -0.0426456    -0.022434   -0.0945498   -0.0902952   -0.0945774     0.309314     0.267673    0.0428108    -0.128558     0.374699     0.214684      0.22226    -0.172624   -0.0573559    -0.114032   -0.0501775     0.158088   -0.0987227     0.356857     0.074509       0.1578     0.201594    -0.096761  -0.00220848   -0.0981711    0.0381678    0.0613032    -0.216337    -0.111956    0.0577453    -0.200227    -0.324063    -0.152662   -0.0643006     0.103385     -0.14107    0.0441928    0.0387339   -0.0497267    0.0694477     0.215715    0.0565189    0.0327341    -0.277319    -0.018122    -0.106534     0.128759     0.113618    -0.278865     0.168208   -0.0379849     0.157832   -0.0805306    0.0866845   -0.0470962     0.268461    -0.107793  -0.00692684     0.121693     0.268051     0.234844   0.00811511     0.142293    -0.123547      0.11187    -0.166937     0.106026    -0.166634    -0.229092     0.209778     0.364658    0.0776367    0.0727887     0.244618    0.0572346      0.27829    -0.260368    -0.181072     0.286633    0.0941808    -0.164991    -0.367509     0.417989    -0.213996     0.100951     0.167414    -0.380152     0.320575    -0.062383     0.219776    -0.201403    0.0539738    -0.198412   0.00426215    0.0284469    -0.108146   -0.0426187    0.0444401    -0.286447    -0.198179   -0.0737525   -0.0969908     0.100549     0.191384    0.0551916    -0.303207  -0.00236736     0.155754    -0.264844     0.263319    -0.316591    -0.219372    -0.202007      0.20854     0.185963     0.173307    0.0349669    0.0652447   -0.0575211     0.139468    0.0935687    -0.280342    0.0476893    -0.196982     0.146984    -0.100107    -0.072015     0.205108    0.0792778   -0.0278983     0.154338    0.0938349     0.314543    -0.266095     0.101482   -0.0220123     0.171786   -0.0936236    -0.176185 -0.000227338     0.290335   0.00689673   -0.0793647   -0.0246443   -0.0741475     0.185671    -0.197353    -0.069548     0.175835    -0.107353      0.22725     -0.18286     0.265825    0.0571444   -0.0141451       0.2572    0.0696014    0.0485929     0.107724    0.0421427   -0.0993527     0.267366    -0.211881     0.089403   -0.0546919     0.299283   -0.0435642     0.102545    0.0580687   -0.0309739     0.135885    -0.143985    0.0739475   -0.0130203    -0.158514   -0.0634409    -0.199489     0.111847   -0.0784417     0.113969   -0.0393538    0.0441932    0.0289807    -0.143081    -0.116213     0.143141    -0.210612     0.380676   -0.0780422     0.243818    -0.242581   -0.0631068      0.20109   -0.0316383     0.310029    -0.346155   -0.0240642   -0.0261354   -0.0949116      0.17838     0.355957     0.101059    0.0693706    0.0633573      0.17326    0.0851499    0.0507886       -0.043    -0.333822     0.360954    0.0256261   -0.0592494    0.0273341     0.118136     0.347237     0.156719    0.0506822      0.28602   -0.0104324   -0.0993161    -0.205473     0.159956   -0.0765414     0.206006       0.2648    -0.180346   -0.0219986      -0.1314     0.188108     0.107576    0.0563002    0.0709245   -0.0990085   0.00728757    0.0419869   -0.0389701    0.0769267    -0.261011     0.291892    -0.353477     0.138412    0.0927959   -0.0786975    -0.395245     0.166093   0.00835282      0.20797   -0.0338847    0.0018291     0.210405    0.0160803   -0.0989313    -0.269548   -0.0630612    -0.103766     0.176386     0.254564     -0.35668    -0.105082    -0.115133   -0.0400015     0.088445    -0.113292    -0.172021   -0.0195219     0.174606     0.146834     0.359877   -0.0497468    -0.301097    -0.219241     0.072696   -0.0847076    0.0716437    0.0298738     0.114492     0.140169    -0.194988    -0.160823     0.117689     0.191379    0.0570966    -0.107779     0.215811     0.154123     0.112997     -0.03041     0.171634     0.139068     0.195477    -0.157979   -0.0293902     0.134237     0.135462
